id,feat_0,feat_1,feat_2,feat_3,feat_4,feat_5,feat_6,feat_7,feat_8,feat_9,feat_10,feat_11,feat_12,feat_13,feat_14,feat_15,feat_16,feat_17,feat_18,feat_19,feat_20,feat_21,feat_22,feat_23,feat_24,feat_25,feat_26,feat_27,feat_28,feat_29,feat_30,feat_31,feat_32,feat_33,feat_34,feat_35,feat_36,feat_37,feat_38,feat_39,feat_40,feat_41,feat_42,feat_43,feat_44,feat_45,feat_46,feat_47,feat_48,feat_49,feat_50,feat_51,feat_52,feat_53,feat_54,feat_55,feat_56,feat_57,feat_58,feat_59,feat_60,feat_61,feat_62,feat_63,feat_64,feat_65,feat_66,feat_67,feat_68,feat_69,feat_70,feat_71,feat_72,feat_73,feat_74,feat_75,feat_76,feat_77,feat_78,feat_79,feat_80,feat_81,feat_82,feat_83,feat_84,feat_85,feat_86,feat_87,feat_88,feat_89,feat_90,feat_91,feat_92,feat_93,feat_94,feat_95,feat_96,feat_97,feat_98,feat_99,feat_100,feat_101,feat_102,feat_103,feat_104,feat_105,feat_106,feat_107,feat_108,feat_109,feat_110,feat_111,feat_112,feat_113,feat_114,feat_115,feat_116,feat_117,feat_118,feat_119,feat_120,feat_121,feat_122,feat_123,feat_124,feat_125,feat_126,feat_127,feat_128,feat_129,feat_130,feat_131,feat_132,feat_133,feat_134,feat_135,feat_136,feat_137,feat_138,feat_139,feat_140,feat_141,feat_142,feat_143,feat_144,feat_145,feat_146,feat_147,feat_148,feat_149,feat_150,feat_151,feat_152,feat_153,feat_154,feat_155,feat_156,feat_157,feat_158,feat_159,feat_160,feat_161,feat_162,feat_163,feat_164,feat_165,feat_166,feat_167,feat_168,feat_169,feat_170,feat_171,feat_172,feat_173,feat_174,feat_175,feat_176,feat_177,feat_178,feat_179,feat_180,feat_181,feat_182,feat_183,feat_184,feat_185,feat_186,feat_187,feat_188,feat_189,feat_190,feat_191,feat_192,feat_193,feat_194,feat_195,feat_196,feat_197,feat_198,feat_199,feat_200,feat_201,feat_202,feat_203,feat_204,feat_205,feat_206,feat_207,feat_208,feat_209,feat_210,feat_211,feat_212,feat_213,feat_214,feat_215,feat_216,feat_217,feat_218,feat_219,feat_220,feat_221,feat_222,feat_223,feat_224,feat_225,feat_226,feat_227,feat_228,feat_229,feat_230,feat_231,feat_232,feat_233,feat_234,feat_235,feat_236,feat_237,feat_238,feat_239,feat_240,feat_241,feat_242,feat_243,feat_244,feat_245,feat_246,feat_247,feat_248,feat_249,feat_250,feat_251,feat_252,feat_253,feat_254,feat_255,feat_256,feat_257,feat_258,feat_259,feat_260,feat_261,feat_262,feat_263,feat_264,feat_265,feat_266,feat_267,feat_268,feat_269,feat_270,feat_271,feat_272,feat_273,feat_274,feat_275,feat_276,feat_277,feat_278,feat_279,feat_280,feat_281,feat_282,feat_283,feat_284,feat_285,feat_286,feat_287,feat_288,feat_289,feat_290,feat_291,feat_292,feat_293,feat_294,feat_295,feat_296,feat_297,feat_298,feat_299,feat_300,feat_301,feat_302,feat_303,feat_304,feat_305,feat_306,feat_307,feat_308,feat_309,feat_310,feat_311,feat_312,feat_313,feat_314,feat_315,feat_316,feat_317,feat_318,feat_319,feat_320,feat_321,feat_322,feat_323,feat_324,feat_325,feat_326,feat_327,feat_328,feat_329,feat_330,feat_331,feat_332,feat_333,feat_334,feat_335,feat_336,feat_337,feat_338,feat_339,feat_340,feat_341,feat_342,feat_343,feat_344,feat_345,feat_346,feat_347,feat_348,feat_349,feat_350,feat_351,feat_352,feat_353,feat_354,feat_355,feat_356,feat_357,feat_358,feat_359,feat_360,feat_361,feat_362,feat_363,feat_364,feat_365,feat_366,feat_367,feat_368,feat_369,feat_370,feat_371,feat_372,feat_373,feat_374,feat_375,feat_376,feat_377,feat_378,feat_379,feat_380,feat_381,feat_382,feat_383,feat_384,feat_385,feat_386,feat_387,feat_388,feat_389,feat_390,feat_391,feat_392,feat_393,feat_394,feat_395,feat_396,feat_397,feat_398,feat_399,feat_400,feat_401,feat_402,feat_403,feat_404,feat_405,feat_406,feat_407,feat_408,feat_409,feat_410,feat_411,feat_412,feat_413,feat_414,feat_415,feat_416,feat_417,feat_418,feat_419,feat_420,feat_421,feat_422,feat_423,feat_424,feat_425,feat_426,feat_427,feat_428,feat_429,feat_430,feat_431,feat_432,feat_433,feat_434,feat_435,feat_436,feat_437,feat_438,feat_439,feat_440,feat_441,feat_442,feat_443,feat_444,feat_445,feat_446,feat_447,feat_448,feat_449,feat_450,feat_451,feat_452,feat_453,feat_454,feat_455,feat_456,feat_457,feat_458,feat_459,feat_460,feat_461,feat_462,feat_463,feat_464,feat_465,feat_466,feat_467,feat_468,feat_469,feat_470,feat_471,feat_472,feat_473,feat_474,feat_475,feat_476,feat_477,feat_478,feat_479,feat_480,feat_481,feat_482,feat_483,feat_484,feat_485,feat_486,feat_487,feat_488,feat_489,feat_490,feat_491,feat_492,feat_493,feat_494,feat_495,feat_496,feat_497,feat_498,feat_499,feat_500,feat_501,feat_502,feat_503,feat_504,feat_505,feat_506,feat_507,feat_508,feat_509,feat_510,feat_511,feat_512,feat_513,feat_514,feat_515,feat_516,feat_517,feat_518,feat_519,feat_520,feat_521,feat_522,feat_523,feat_524,feat_525,feat_526,feat_527,feat_528,feat_529,feat_530,feat_531,feat_532,feat_533,feat_534,feat_535,feat_536,feat_537,feat_538,feat_539,feat_540,feat_541,feat_542,feat_543,feat_544,feat_545,feat_546,feat_547,feat_548,feat_549,feat_550,feat_551,feat_552,feat_553,feat_554,feat_555,feat_556,feat_557,feat_558,feat_559,feat_560,feat_561,feat_562,feat_563,feat_564,feat_565,feat_566,feat_567,feat_568,feat_569,feat_570,feat_571,feat_572,feat_573,feat_574,feat_575,feat_576,feat_577,feat_578,feat_579,feat_580,feat_581,feat_582,feat_583,feat_584,feat_585,feat_586,feat_587,feat_588,feat_589,feat_590,feat_591,feat_592,feat_593,feat_594,feat_595,feat_596,feat_597,feat_598,feat_599,feat_600,feat_601,feat_602,feat_603,feat_604,feat_605,feat_606,feat_607,feat_608,feat_609,feat_610,feat_611,feat_612,feat_613,feat_614,feat_615,feat_616,feat_617,feat_618,feat_619,feat_620,feat_621,feat_622,feat_623,feat_624,feat_625,feat_626,feat_627,feat_628,feat_629,feat_630,feat_631,feat_632,feat_633,feat_634,feat_635,feat_636,feat_637,feat_638,feat_639,feat_640,feat_641,feat_642,feat_643,feat_644,feat_645,feat_646,feat_647,feat_648,feat_649,feat_650,feat_651,feat_652,feat_653,feat_654,feat_655,feat_656,feat_657,feat_658,feat_659,feat_660,feat_661,feat_662,feat_663,feat_664,feat_665,feat_666,feat_667,feat_668,feat_669,feat_670,feat_671,feat_672,feat_673,feat_674,feat_675,feat_676,feat_677,feat_678,feat_679,feat_680,feat_681,feat_682,feat_683,feat_684,feat_685,feat_686,feat_687,feat_688,feat_689,feat_690,feat_691,feat_692,feat_693,feat_694,feat_695,feat_696,feat_697,feat_698,feat_699,feat_700,feat_701,feat_702,feat_703,feat_704,feat_705,feat_706,feat_707,feat_708,feat_709,feat_710,feat_711,feat_712,feat_713,feat_714,feat_715,feat_716,feat_717,feat_718,feat_719,feat_720,feat_721,feat_722,feat_723,feat_724,feat_725,feat_726,feat_727,feat_728,feat_729,feat_730,feat_731,feat_732,feat_733,feat_734,feat_735,feat_736,feat_737,feat_738,feat_739,feat_740,feat_741,feat_742,feat_743,feat_744,feat_745,feat_746,feat_747,feat_748,feat_749,feat_750,feat_751,feat_752,feat_753,feat_754,feat_755,feat_756,feat_757,feat_758,feat_759,feat_760,feat_761,feat_762,feat_763,feat_764,feat_765,feat_766,feat_767,feat_768,feat_769,feat_770,feat_771,feat_772,feat_773,feat_774,feat_775,feat_776,feat_777,feat_778,feat_779,feat_780,feat_781,feat_782,feat_783,feat_784,feat_785,feat_786,feat_787,feat_788,feat_789,feat_790,feat_791,feat_792,feat_793,feat_794,feat_795,feat_796,feat_797,feat_798,feat_799,feat_800,feat_801,feat_802,feat_803,feat_804,feat_805,feat_806,feat_807,feat_808,feat_809,feat_810,feat_811,feat_812,feat_813,feat_814,feat_815,feat_816,feat_817,feat_818,feat_819,feat_820,feat_821,feat_822,feat_823,feat_824,feat_825,feat_826,feat_827,feat_828,feat_829,feat_830,feat_831,feat_832,feat_833,feat_834,feat_835,feat_836,feat_837,feat_838,feat_839,feat_840,feat_841,feat_842,feat_843,feat_844,feat_845,feat_846,feat_847,feat_848,feat_849,feat_850,feat_851,feat_852,feat_853,feat_854,feat_855,feat_856,feat_857,feat_858,feat_859,feat_860,feat_861,feat_862,feat_863,feat_864,feat_865,feat_866,feat_867,feat_868,feat_869,feat_870,feat_871,feat_872,feat_873,feat_874,feat_875,feat_876,feat_877,feat_878,feat_879,feat_880,feat_881,feat_882,feat_883,feat_884,feat_885,feat_886,feat_887,feat_888,feat_889,feat_890,feat_891,feat_892,feat_893,feat_894,feat_895,feat_896,feat_897,feat_898,feat_899,feat_900,feat_901,feat_902,feat_903,feat_904,feat_905,feat_906,feat_907,feat_908,feat_909,feat_910,feat_911,feat_912,feat_913,feat_914,feat_915,feat_916,feat_917,feat_918,feat_919,feat_920,feat_921,feat_922,feat_923,feat_924,feat_925,feat_926,feat_927,feat_928,feat_929,feat_930,feat_931,feat_932,feat_933,feat_934,feat_935,feat_936,feat_937,feat_938,feat_939,feat_940,feat_941,feat_942,feat_943,feat_944,feat_945,feat_946,feat_947,feat_948,feat_949,feat_950,feat_951,feat_952,feat_953,feat_954,feat_955,feat_956,feat_957,feat_958,feat_959,feat_960,feat_961,feat_962,feat_963,feat_964,feat_965,feat_966,feat_967,feat_968,feat_969,feat_970,feat_971,feat_972,feat_973,feat_974,feat_975,feat_976,feat_977,feat_978,feat_979,feat_980,feat_981,feat_982,feat_983,feat_984,feat_985,feat_986,feat_987,feat_988,feat_989,feat_990,feat_991,feat_992,feat_993,feat_994,feat_995,feat_996,feat_997,feat_998,feat_999,feat_1000,feat_1001,feat_1002,feat_1003,feat_1004,feat_1005,feat_1006,feat_1007,feat_1008,feat_1009,feat_1010,feat_1011,feat_1012,feat_1013,feat_1014,feat_1015,feat_1016,feat_1017,feat_1018,feat_1019,feat_1020,feat_1021,feat_1022,feat_1023,feat_1024,feat_1025,feat_1026,feat_1027,feat_1028,feat_1029,feat_1030,feat_1031,feat_1032,feat_1033,feat_1034,feat_1035,feat_1036,feat_1037,feat_1038,feat_1039,feat_1040,feat_1041,feat_1042,feat_1043,feat_1044,feat_1045,feat_1046,feat_1047,feat_1048,feat_1049,feat_1050,feat_1051,feat_1052,feat_1053,feat_1054,feat_1055,feat_1056,feat_1057,feat_1058,feat_1059,feat_1060,feat_1061,feat_1062,feat_1063,feat_1064,feat_1065,feat_1066,feat_1067,feat_1068,feat_1069,feat_1070,feat_1071,feat_1072,feat_1073,feat_1074,feat_1075,feat_1076,feat_1077,feat_1078,feat_1079,feat_1080,feat_1081,feat_1082,feat_1083,feat_1084,feat_1085,feat_1086,feat_1087,feat_1088,feat_1089,feat_1090,feat_1091,feat_1092,feat_1093,feat_1094,feat_1095,feat_1096,feat_1097,feat_1098,feat_1099,feat_1100,feat_1101,feat_1102,feat_1103,feat_1104,feat_1105,feat_1106,feat_1107,feat_1108,feat_1109,feat_1110,feat_1111,feat_1112,feat_1113,feat_1114,feat_1115,feat_1116,feat_1117,feat_1118,feat_1119,feat_1120,feat_1121,feat_1122,feat_1123,feat_1124,feat_1125,feat_1126,feat_1127,feat_1128,feat_1129,feat_1130,feat_1131,feat_1132,feat_1133,feat_1134,feat_1135,feat_1136,feat_1137,feat_1138,feat_1139,feat_1140,feat_1141,feat_1142,feat_1143,feat_1144,feat_1145,feat_1146,feat_1147,feat_1148,feat_1149,feat_1150,feat_1151,feat_1152,feat_1153,feat_1154,feat_1155,feat_1156,feat_1157,feat_1158,feat_1159,feat_1160,feat_1161,feat_1162,feat_1163,feat_1164,feat_1165,feat_1166,feat_1167,feat_1168,feat_1169,feat_1170,feat_1171,feat_1172,feat_1173,feat_1174,feat_1175,feat_1176,feat_1177,feat_1178,feat_1179,feat_1180,feat_1181,feat_1182,feat_1183,feat_1184,feat_1185,feat_1186,feat_1187,feat_1188,feat_1189,feat_1190,feat_1191,feat_1192,feat_1193,feat_1194,feat_1195,feat_1196,feat_1197,feat_1198,feat_1199,feat_1200,feat_1201,feat_1202,feat_1203,feat_1204,feat_1205,feat_1206,feat_1207,feat_1208,feat_1209,feat_1210,feat_1211,feat_1212,feat_1213,feat_1214,feat_1215,feat_1216,feat_1217,feat_1218,feat_1219,feat_1220,feat_1221,feat_1222,feat_1223,feat_1224,feat_1225,feat_1226,feat_1227,feat_1228,feat_1229,feat_1230,feat_1231,feat_1232,feat_1233,feat_1234,feat_1235,feat_1236,feat_1237,feat_1238,feat_1239,feat_1240,feat_1241,feat_1242,feat_1243,feat_1244,feat_1245,feat_1246,feat_1247,feat_1248,feat_1249,feat_1250,feat_1251,feat_1252,feat_1253,feat_1254,feat_1255,feat_1256,feat_1257,feat_1258,feat_1259,feat_1260,feat_1261,feat_1262,feat_1263,feat_1264,feat_1265,feat_1266,feat_1267,feat_1268,feat_1269,feat_1270,feat_1271,feat_1272,feat_1273,feat_1274,feat_1275,feat_1276,feat_1277,feat_1278,feat_1279
P00519|CHEMBL1862|Tyrosine-protein,0.05204788,0.009625867,0.08426547,0.045155786,0.011412239,-0.032293927,0.028453153,-0.058726583,-0.07951705,0.09850806,0.1478184,0.023348484,0.081811324,0.022600072,0.13983093,-0.002764804,0.060597442,-0.04502137,0.029768307,0.002204422,0.031659067,-0.1511875,0.00024522096,0.113678284,-0.113887,-0.09608382,-0.024118181,-0.10294819,0.0385731,-0.01687894,0.069772296,0.08235029,0.12560987,0.06936775,0.063504934,0.07295664,-0.056200594,-0.01031239,-0.1640664,0.0031570308,0.07768482,0.11338642,0.24392779,-0.045478683,0.0153358225,-0.051873446,-0.04101031,0.12626494,-0.06446009,0.02471089,-0.065447375,0.044625644,-0.17104702,0.1299296,0.07241817,-0.0030023651,-0.08033974,-0.04592335,0.10641309,0.06589206,-0.065134734,-0.025050264,-0.06914,-0.0025898702,0.019171663,-0.016542852,-0.13788962,0.17052047,-0.14427102,0.091256924,-0.10259197,-0.060111143,-0.038171615,-0.19971329,-3.068708e-05,0.19797184,-0.018229743,0.041118085,-0.040797386,0.0061891368,0.050121196,-0.040841464,0.1272275,0.0034543835,-0.021426747,0.050402135,-0.002922926,0.02709794,0.11707833,-0.004729284,0.05771951,-0.0364085,-0.025590349,0.00096517056,0.09614979,0.096775964,0.020207744,-0.08704422,0.019187074,-0.0962088,-0.10063943,0.0056672785,-0.063706875,-0.13777258,-0.07024321,0.12552206,-0.16319646,0.072464965,0.008699082,-0.07137166,0.05938261,0.009037115,0.11631383,0.043495193,0.049803305,0.1812007,-0.007712987,0.11535438,-0.016111689,0.07217323,-0.01168098,0.03619452,0.012931,0.11543091,0.0021625496,-0.17870782,-0.053021543,0.1475853,0.07025256,-0.082614206,-0.01443441,0.077603966,0.1402607,-0.03299481,-0.05892812,0.108363494,-0.022526275,0.031060107,-0.009200023,0.12728512,0.061468534,0.10164701,-0.012075089,-0.117329836,0.10084357,0.055505436,-0.063265674,-0.048472736,0.0633572,0.05163207,0.112668775,-0.2041755,-0.17342646,0.046211965,-0.04802645,0.16158341,-0.037188362,0.16887617,0.046138514,0.020450138,-0.052703045,0.028160285,-0.097515844,0.0007469598,-0.05951389,0.056629535,0.0036758594,0.0624504,0.09730927,-0.13359682,-0.062143303,-0.08709861,-0.001967229,-0.0016524233,-0.16366181,0.018687647,-0.13488558,0.06737291,-0.1445701,-0.13221535,-0.005858632,0.0054511027,0.18287301,-0.0015846007,-0.04880083,-0.118116185,0.05212364,0.0150869815,0.00901703,0.15510786,-0.14589292,0.19509962,-0.022831384,0.029098134,0.084741,0.054307386,-0.20342466,0.059503283,0.08248375,0.013300508,-0.12772986,0.037155118,-0.050715238,-0.11004951,-0.008059492,-0.11228837,0.11864698,-0.0053372206,-0.05310499,-0.01837606,-0.05825545,-0.1473793,-0.051004566,0.02409084,-0.081988424,-0.009566136,-0.099973984,-0.08522867,-0.0058395024,0.017181348,-0.12256966,0.096944526,0.0065635163,-0.101271875,0.15292466,-0.004747188,0.04500461,-0.10320407,-0.17037539,-0.004027661,0.13069423,0.275146,-0.05765057,-0.0868597,-1.0184871,0.013989077,0.09129972,-0.099750675,0.14548793,0.0077753803,-0.07104984,0.09297395,0.18848802,-0.06570357,-0.05824637,0.019811109,0.08489095,-0.06372341,0.03741068,0.16726066,0.07854617,-0.005721013,0.08177522,-0.121206895,0.059381828,0.059577644,-0.09191884,-0.11908025,0.006068092,-0.033833183,-0.21950017,-0.021616563,-0.019513711,-0.057817977,0.024914796,-0.06881004,0.21615052,-0.011760717,-0.057856694,0.037716597,-0.11499674,-0.030315975,-0.016189877,0.08502036,0.025964733,0.15183005,-0.032219376,0.20777102,0.02562486,0.07276531,0.09271833,-0.060580883,0.001657377,0.029277954,-0.03892362,0.2534433,0.029519618,0.05851804,0.053637326,-0.039672524,0.026424509,0.039401487,-0.03948257,-0.06097632,0.06264137,-0.10995118,-0.083386794,-0.010882235,-0.019965613,0.016225275,0.1659541,0.06741651,-0.014445946,0.0954368,0.027780715,-0.101221815,0.2729619,-0.072128035,0.043812893,0.22433558,-0.038331084,0.03631775,0.15690169,-0.083832055,0.12076643,-0.13500974,-0.16671728,-0.037946478,0.0008206684,0.041633092,0.0075305505,0.040412348,0.0031227954,0.060063675,0.007340256,0.04971064,-0.04534828,-0.09325934,0.08623393,0.0687246,-0.009093866,0.040752556,-0.035025183,-0.06524253,-0.21739486,0.050195374,0.096523665,0.071013264,0.20404844,-0.05715552,-0.05293241,-0.050667755,0.116322845,0.13006581,0.23737447,-0.16311571,0.008681694,-0.026688585,-0.11015545,0.058110632,0.0288001,0.016469544,0.0076918975,-0.06732783,0.069724336,0.08104181,-0.07290986,-0.089112334,-0.08261735,0.11487093,-0.03795878,-0.08364115,0.010861799,-0.07250827,-0.066006064,-0.028517742,-0.10741613,-0.1674484,0.083919644,-0.02266284,-0.037719417,-0.20848483,-0.08436513,0.004701107,0.14155757,0.20817733,0.04590183,0.023506142,0.13006036,0.054691236,0.1108668,0.088989384,0.07726976,-0.034695067,0.043789927,-0.22311734,-0.025718635,0.12440287,-0.10863691,-0.044397786,-0.16118705,0.038498607,-0.08517883,-0.07156584,-0.10143291,0.025177302,-0.0012786128,0.08510046,-0.07432779,0.060311407,0.072377615,0.061955344,-0.10137616,0.27009654,-0.056708798,-0.114562586,-0.036860652,0.06951447,-0.08949977,0.015122671,-0.08940522,-0.01779906,0.12802748,-0.09038158,-0.0969399,-0.028629497,-0.010718264,0.09631174,-0.033247527,0.058298007,0.009430006,0.21734133,0.16856267,0.14034998,0.026170842,0.06752427,-0.05250069,0.052715324,-0.17677692,0.14188817,-0.061845306,-0.15571558,0.027633123,0.082960635,-0.13294253,0.09978271,0.07353212,-0.038201742,-0.030948725,-0.040348638,-0.056388196,-0.058818784,-0.07041697,0.01760409,-0.052720778,0.039525893,-0.008193487,0.10426829,0.07282902,-0.07128613,-0.068304464,0.10359344,0.040657777,-0.032463826,0.0069578625,0.06766986,0.054477762,0.055843733,-0.029037591,0.009530041,0.092122026,0.13737005,-0.009330144,-0.10487841,0.027607966,0.044298522,-0.05528579,0.034968786,-0.02697636,-0.013363335,0.048574336,0.14799254,0.092104405,0.08590137,0.04616434,0.03536693,-0.11061666,0.13381687,0.0332343,0.10413025,0.021972513,-0.030161254,0.030745778,-0.058469012,-0.024879567,0.029193657,0.072411105,0.06383096,-0.073741525,-0.037996158,-0.07226282,0.18404728,-0.12676942,0.05062187,-0.045052808,0.22388022,-0.013946207,-0.06461653,-0.028895238,-0.023984473,0.071273305,0.08492628,0.008092908,-0.04774653,0.011521885,0.12008837,0.14724785,-0.10975846,0.035726763,0.048550006,-0.10002072,0.11068325,0.052329518,0.08082612,-0.07998009,-0.088908345,-0.084533244,-0.010351444,-0.14354794,0.07798189,0.04355662,0.0504221,0.1036383,-0.28844795,0.08846769,-0.24950176,-0.03944773,0.0463796,0.074319616,-0.011638856,0.08564111,0.084808685,-0.24419796,0.06372138,-0.008445306,0.010376174,0.006727458,0.091595806,0.03836935,0.0021114429,0.08639715,0.12514074,0.24714042,0.03596697,-0.018384758,-0.18358245,0.14898032,-0.005662873,-0.03894307,-0.09278324,-0.028570104,-0.057644255,-0.0019773915,-0.050237313,0.049292594,0.10568586,-0.19223298,0.07146158,-0.04415014,0.11867859,0.13834102,-0.027302802,-0.046104062,-0.055838197,0.13438779,-0.04500742,-0.060532555,-0.038670227,0.091071665,-0.036518276,-0.1349549,0.07206774,0.048278347,-0.016112145,0.03705314,-0.026202857,0.17614001,0.12243952,0.13381799,0.062880665,0.11794237,-0.051854216,0.06946969,0.33652353,0.13269697,0.041778684,0.010958752,0.10356546,-0.24037789,0.04080075,0.002424229,-0.05970854,0.015185639,0.016407479,0.09451032,-0.053601723,-0.0832928,0.045482624,0.027927268,0.17377539,0.03948992,0.06492643,-0.0530048,0.03258145,0.042117726,0.010998305,-0.015904134,0.15468167,-0.11757676,-0.07823017,-0.11161132,-0.08087173,0.10252687,-0.05794561,-0.04260556,0.09074466,-0.053292993,-0.018732604,-0.017446477,-0.015624169,-0.036729638,0.07906956,0.061961055,0.09922052,-0.01144189,-0.010305602,0.1705989,-0.10056588,-0.12903571,0.013011633,0.014504869,0.12599353,-0.07782246,-0.035812683,-0.071161196,0.022247244,-0.109256506,0.07492631,-0.051242933,0.120268,0.054058872,-0.014862936,0.029277544,-0.10647127,-0.104355074,0.18536286,-0.1719066,0.28006014,0.13162223,-0.08174975,0.04296371,-0.11511248,-0.06358881,0.07488929,0.0440184,0.035779126,0.02509797,-0.0791241,-0.12832648,0.30123627,0.09238786,-0.024620838,0.0702674,-0.20779723,-0.11511798,-7.628091e-05,-0.12471948,0.21957968,0.15891264,-0.036344644,0.055834714,-0.100597575,0.09707861,-0.17244849,0.24242921,-0.017230406,0.108143516,0.17105363,-0.015573608,0.074934386,0.053374894,0.15373605,0.024592545,-0.09092532,-0.11763752,0.07124918,0.121928126,0.022073925,-0.024888387,-0.092841886,-0.10411496,0.13461311,0.18016846,-0.045428082,0.05249037,0.08805777,0.06252662,0.078645095,0.116480485,0.1314899,0.05644594,0.17529453,0.0058545787,-0.052156,0.002058248,0.031862553,-0.0136502385,-0.1280284,-0.13569665,0.027503274,0.04379987,0.008511927,-0.029127866,-0.08776244,0.017381381,-0.049371462,-0.019574836,0.1083831,-0.0633028,-0.10381181,-0.21480682,0.09755793,0.060309105,-0.03092432,0.041878413,0.055103507,0.18436968,0.029461615,0.02993803,0.029516565,0.013325766,-0.13036384,0.03533217,0.08283611,-0.10221644,-0.09911646,-0.18659644,0.12047321,-0.0773923,-0.031627767,-0.030583505,-0.032812256,0.16662376,-0.14478889,-0.054873582,-0.21399713,0.033112776,0.17076784,0.087466985,-0.14429605,0.074954696,0.022591697,0.09021925,0.012251193,0.09559776,-0.08564527,-0.07399189,-0.052469473,-0.021602511,0.0047611254,-0.21002476,-0.054905053,0.14895473,0.032274768,0.07276133,-0.012837939,-0.026387604,-0.024907285,-0.0690932,0.04187146,0.093672544,0.09927086,-0.011985544,0.0049141534,-0.007006754,-0.053531118,-0.06508056,0.17140602,0.055764563,0.000288003,-0.120156124,0.028071603,0.08051765,-0.026722476,-0.13701531,0.006453339,-0.011830606,0.052944377,0.004741166,-0.20000657,-0.1384737,0.057971917,0.042883776,0.010558609,0.058735736,-0.22328933,-0.09232359,0.09216514,-0.010321098,-0.10005865,0.14423531,-0.013487566,-0.14363682,0.20283261,0.13725497,-0.025323104,-0.080571786,-0.018162575,-0.13548157,0.10305863,0.056803778,0.07633931,0.13040106,0.08601307,0.11570584,-0.1633961,0.074014135,-0.045217134,0.18751757,-0.005504634,-0.11894894,-0.04188958,-0.080515385,0.12508583,-0.09730786,-0.009983726,0.046399117,-0.19169234,0.047608443,0.090296134,-0.014945136,0.05452092,-0.05931934,0.05355414,0.002515547,0.05404136,0.4744393,0.11504769,0.07860124,0.03209667,-0.05762184,-0.010037946,0.0048670233,0.08673073,-0.11599372,0.06603464,0.10504305,-0.13743857,-0.0308753,0.01620306,-0.11553559,0.058940552,0.044683464,0.005677696,0.10778942,0.05664643,-0.07604067,0.007153807,-0.11377035,-0.0750798,-0.07002785,0.04973988,-0.04157787,-0.13039881,0.009066288,-0.02664165,0.013777938,0.08860464,0.00038185343,0.007118457,0.013665551,-0.015590483,0.02002583,0.10792877,0.021533526,0.15348151,0.05518545,0.15523803,-0.027611004,0.13706191,-0.09493381,-0.02422149,-0.108078845,-0.07665125,0.07347132,0.023385111,0.08038319,-0.11150471,0.028121669,-0.09240869,0.030542426,0.008701976,0.08630741,-0.10901143,-0.065276965,0.021741245,-0.012542978,0.14447005,-0.06403208,0.1120463,-0.06599183,0.09022275,0.05423426,-0.13211612,0.050112635,0.15466183,-0.022279393,0.06086591,0.17297561,0.34563154,0.016212663,-0.07948446,-0.037887543,-0.14227,-0.036335517,-0.04262366,0.04317417,-0.08531093,0.03619315,-0.06423288,-0.032849744,0.09768134,-0.11115581,0.0081809545,0.072419256,-0.036632285,0.095520996,-0.08470174,-0.16763565,0.064660706,0.019399598,-0.05027923,-0.15024863,-0.13685665,-0.039814085,-0.06949709,-0.10921067,-0.056254506,-0.026613766,0.048039056,-0.027588982,-0.053091362,0.14097261,-0.011378012,0.090160444,0.20001446,-0.05089344,-0.16673756,0.050205793,-0.12741902,-0.03342903,-0.019533189,0.04233343,0.04806658,0.19902809,-0.15851234,-0.13013375,0.024585571,-0.0051490515,0.19596536,0.05743452,-0.09845775,0.01843163,0.028368782,0.026923297,0.016182961,0.006184671,0.12845363,-0.066385016,-0.030833282,-0.04467854,0.052063063,0.0050871624,0.14520949,-0.015391052,0.11273514,0.10344863,-0.08844682,-0.10410148,0.05283911,-0.06365761,0.04001584,-0.11100381,-0.166066,-0.12258771,-0.013207972,-0.056491975,0.05479817,-0.0053920336,0.07008117,-0.01635667,-0.09717329,0.1426428,0.0045967475,-0.0035280655,0.20546333,0.0751937,-0.03434722,0.031689733,-0.028860398,0.005783586,0.0645386,-0.014736177,-0.09344856,0.03000777,-0.028607167,0.038811885,0.17161313,0.004987143,0.2081987,0.02647372,-0.13123278,0.090004094,-0.10857944,0.13424282,-0.16241005,-0.06759677,0.05418263,0.03927319,-0.012677908,-0.06273171,-0.075395286,-0.047435414,-0.18170518,0.02350229,0.08437651,0.11365823,-0.07961309,-0.107531376,-0.075815305,-0.04302548,-0.10229597,0.10138264,-0.15338965,0.12338223,-0.03394807,-0.011795049,0.035169657,-0.12377259,0.041501924,0.23476774,-0.0776107,-0.002456653,-0.060790565,-0.0040584,0.04247074,-0.008175619,0.02550717,-0.014231636,-0.033112936,0.029492144,0.05726569,0.022866245,-0.044996906,0.07658531,-0.08517136,0.040636078,0.06641146,-0.05603024,0.110593006,0.04442198,0.045858935,-0.18936251,-0.16355397,0.04574953,-0.23420472,0.02807796,-0.025880136,-0.026101885,-0.15831849,0.045443445,0.12025172,0.13513045,-0.107102945,-0.08668474,0.008870993,0.023101358,0.037667558,-0.04049257,0.0367272,0.13956666,0.030117996,0.067102075,0.071635365,-0.011034845,-0.06306862,0.020252207,-0.03634068,-0.21999343,-0.038848463,0.12312488,0.14606887,-0.103421345,-0.15915187,0.005787517,0.26003328,0.0032861792,-0.1069404,-0.07652803,-0.13498715,-0.06273527,-0.032640412,0.15814175,0.037363008,0.0075577926,-0.069367215,-0.007848827,0.15401094,0.02862043,0.0050102705,-0.022105116,-0.029336318,-0.06581351,-0.037988044,0.10521382,0.010182695,0.08959411,-0.10302875,-0.045116074,-0.17159592,-0.00026057428,-0.055259895,0.012939209,0.08668164,-0.0830717,0.06151665,-0.11527721,-0.10100515,0.051889844,0.041520562,0.09817034,0.18640932,-0.084996134,0.05773146,-0.047551367,-0.12469628,-0.055137396,0.1006697,-0.03712448,-0.01644592,-0.043228246,-0.30264682,0.10997094,-0.034227286,0.017484475,-0.013081902,0.13319564,0.0047808215,0.14250845,0.03132002,0.045448124,0.1812624,-0.033820502,-0.016750166,-0.10894569,0.0021341778,0.12394154,0.049083445,0.04248618,-0.019357158,-9.473481,0.07308972,-0.005851906,-0.010066504,0.12870353,0.23882407,-0.06561217,-0.05524992,0.0071878247,0.07306358,-0.014167688,-0.021071598,0.01661322,-0.021969939,0.047359068,-0.011826996,0.012399609,0.02072493,0.113774225,0.2386353,0.025795858,0.06476091,-0.026978213,0.027384136,0.12635535,0.02407346,-0.014719902,0.08505308,0.061905354,0.0003045865,0.032499876,0.07214288,0.0030803736,0.09265015,-0.032534413,0.022197679,-0.050661977,0.01705551,0.045995295,0.10225458,-0.031207375,0.06448138,-0.056808945,-0.018498268,0.083234616,-0.25127906,-0.0472214,0.03456196,0.100260675,0.07879216,0.110214956,0.0352782,-0.003029177,0.015845835,-0.105915934,-0.01913624,-0.030086616,0.1673983,0.07994547,0.0068602115,-0.19231951,-0.008088538,-0.06349512,-0.118296824,-0.03667681,-0.064392775,-0.012327904,0.08100356,-0.08310571,-0.004627728,0.101904325,-0.06781672,0.18587667,0.08874495,0.037005313,0.11685809,-0.016362408,-0.11382518,0.0989111,-0.08869036,0.0051027476,-0.021809693,-0.13028257,-0.08217631,0.010047017,0.056271963,-0.01185628,-0.013908438,0.04163858,-0.02687985,0.014484391,-0.06306155,0.046021644,-0.07147209,0.021203514,0.015541967,-3.263168e-05,-0.09873766,0.12526408,-0.08226852,0.13615468,-0.07418664,0.08611694,0.09481214,0.19851853,-0.025768418,0.15251653,0.05278393,0.09974139,0.043657638,0.037622612,-0.069398634,-0.17527069,0.017365847,0.024987372,0.03004533,-0.030357448,-0.2347359,0.15697406,0.0040287673
P04626|CHEMBL1824|Receptor,0.05694016,0.0011512758,0.09171279,0.01165277,-0.0061566774,0.02817813,0.010840014,-0.0817053,-0.06549758,0.13812397,0.13379042,0.093306966,0.09843901,0.037319988,0.1471872,-0.030140275,0.050655555,-0.09393098,0.019177966,0.05003538,0.09076341,-0.19342509,0.005262397,0.03567126,-0.06498714,-0.051729955,-0.08214905,-0.10318834,0.021478549,0.03146805,0.025529636,0.062306404,0.09051529,0.08732535,0.06536874,0.02891595,-0.06642805,-0.009847378,-0.1849867,0.07698697,0.047949728,0.10143879,0.31862384,0.03502186,0.012248149,-0.12845598,0.043769848,0.1756025,0.038164254,0.051941633,-0.0533818,0.0075059906,-0.13404801,0.16207455,0.10472693,0.015883949,-0.10819687,-0.05308585,0.11597938,0.067108646,-0.05296637,-0.012622142,-0.13341205,-0.020992931,0.0052876286,-0.0269139,-0.10174787,0.2097515,-0.113314204,0.029677631,-0.06283634,-0.15319517,-0.1466067,-0.20196985,-0.04135296,0.26159355,-0.031507056,0.12165843,-0.030121122,-0.044899777,0.034144983,-0.049061403,0.10659041,-0.07643216,-0.060916916,0.0275743,0.06876536,-0.05484707,0.08000056,0.012364759,0.06053548,0.008207947,-0.072228886,-0.060435954,0.019780926,0.047212355,0.031570856,-0.16879499,0.03359803,-0.18206868,-0.10678007,-0.075806364,-0.08764844,-0.104395926,-0.12526119,0.05022209,-0.14324062,0.06673516,0.05789706,-0.11218026,0.19158666,0.06487159,0.09982896,0.0029419921,0.08284579,0.19009662,0.012790332,0.08726729,0.040208824,0.09302291,-0.04027739,0.05488992,0.07843521,0.12002834,-0.008936153,-0.25842094,-0.06754715,0.19559406,0.07105211,-0.12430416,-0.034398567,0.03645051,0.12911654,-0.09389893,-0.06338225,0.09163254,-0.0085908845,0.101688445,-0.026263896,0.13208374,-0.0011539124,0.10374841,-0.010461474,-0.09819374,0.120639294,0.16807988,-0.03546477,-0.027016148,0.09379825,0.03772772,0.13991125,-0.24164936,-0.176144,0.010888003,-0.023953002,0.21088827,0.00563222,0.15872349,0.0792232,0.049969174,-0.07033022,0.022723837,-0.03215746,0.008501273,-0.14134723,0.04672041,0.055915248,-0.0027582156,0.09060819,-0.11995147,-0.10844146,-0.08352754,0.039093334,0.056033492,-0.14315498,-0.06647984,-0.18130527,-0.030989416,-0.15567417,-0.10618667,0.038552683,-0.01912404,0.24063843,0.06432998,-0.07410498,-0.08344203,0.0026760455,0.009921178,0.056317005,0.21651404,-0.19784904,0.222585,0.02825706,0.01413798,0.12330959,0.096101925,-0.27763137,0.056421828,0.0603347,0.07625833,-0.08312505,0.09183441,-0.08042982,-0.11287956,0.0028467164,-0.06746253,0.12551211,-0.051004775,-0.040028945,-0.035029404,-0.08449764,-0.13869146,-0.0053352956,0.08344781,-0.046712894,0.02128689,-0.09282967,-0.05652055,0.04621402,0.01190554,-0.1215918,0.11271913,-0.017159093,-0.07147835,0.19220032,-0.015541817,0.021785125,-0.20969637,-0.13646829,-0.024483878,0.17070153,0.31074068,-0.076198764,-0.088550255,-0.40027618,0.0081498,0.08297941,-0.10472762,0.092304945,0.04104553,-0.0565162,0.04712496,0.17834409,-0.04132309,-0.10696626,0.043050915,0.10355637,-0.04496256,0.044126272,0.17483073,0.101981014,0.023025969,0.116468705,-0.08122304,0.09769833,0.12509954,-0.18776849,-0.19265498,0.016037792,-0.088139445,-0.247092,-0.041167274,-0.05548186,-0.103208594,0.050273653,-0.05735058,0.23123734,0.030869083,-0.08486631,0.09764731,-0.10430371,-0.046181343,-0.07662198,0.16133681,0.007397298,0.18796325,-0.012142163,0.24572349,-0.018283471,0.081076704,0.06843139,-0.06619714,0.002092177,0.11368476,-0.06668238,0.21706513,0.086187564,0.06445757,0.08464693,-0.100066796,0.020714248,-0.0021593403,-0.06415454,-0.058726374,0.12730256,-0.08782386,-0.10227157,0.0028661508,0.009143564,-0.011697133,0.18987487,0.0840722,-0.04489921,0.0476949,0.0154146105,-0.08614068,0.2505223,-0.026016898,0.085059516,0.25466585,-0.05240408,-0.028208524,0.2045383,-0.03275395,0.012554958,-0.13672465,-0.14416938,0.024322346,-0.07320453,0.048211314,0.012235869,0.06964418,0.07492962,0.054171048,-0.0051991157,0.0019279392,-0.09651612,-0.18145856,0.0530459,0.12836485,0.0009477101,0.020439526,0.025097795,-0.09506017,-0.20638278,0.11105992,0.10751184,0.07330588,0.23592281,-0.029654656,-0.15272275,-0.11046769,0.11852776,0.08550151,0.3065499,-0.16562475,-0.050860845,0.0024472997,-0.07081674,0.10398246,0.059253663,-0.0034668148,-0.082030736,-0.081229255,0.15357344,0.0739415,-0.026897036,-0.06764062,-0.10151428,0.16937847,-0.07046028,-0.086977325,-0.0007116869,-0.005366656,-0.0060811676,-0.07370442,-0.12490742,-0.17768347,0.1311723,-0.0702892,0.046963662,-0.19976828,0.019638631,-0.0028439863,0.17349882,0.28488466,0.07026087,-0.025649674,0.1390585,0.07660591,0.09864512,0.08478295,0.14119299,-0.037024222,0.07317729,-0.24643537,-0.058073796,0.19784202,-0.104778394,-0.040770702,-0.13963282,0.019607749,-0.02725197,-0.12337062,-0.15782972,0.069231234,0.03701792,0.09492385,-0.07640518,0.06769729,0.04698921,0.16489136,-0.14735538,0.34702668,-0.06269248,-0.10921067,-0.047453705,0.06985659,-0.11721139,0.083303906,-0.08030598,-0.0055595674,0.11744559,-0.059942037,-0.0028497626,-0.02006755,0.019324226,0.069964156,0.097766705,0.0019180328,-0.0060356483,0.26698974,0.161238,0.11755099,-0.04579712,0.060728364,-0.06949885,0.037984956,-0.11233116,0.16435178,-0.017282534,-0.2430576,-0.005080788,0.069736466,-0.27102247,0.1048604,0.06511604,-0.06861797,-0.0021897722,-0.034917653,-0.046789326,0.05779282,-0.0672708,-0.037383895,-0.0200825,-0.0026122741,0.015334353,0.13835916,0.12586042,-0.107640535,-0.028212309,0.119896,-0.0052543916,-0.05589087,-0.018951353,0.028410373,0.0649615,0.14716351,-0.09107671,0.007783957,0.11104788,0.14263782,-0.055352017,-0.029071556,-0.010992932,-0.006572983,-0.014593117,0.01974589,-0.013686376,-0.07911048,0.07426966,0.18396258,0.13641337,0.05846656,0.09566055,0.1281608,-0.16314356,0.14593387,-0.009409966,0.13235576,0.098076895,-0.059231225,0.09366158,-0.011908225,-0.04561164,0.10578588,0.1220992,0.059760407,-0.06627239,-0.0915491,-0.112289615,0.22242722,-0.14160326,0.062021837,-0.03200914,0.2429508,0.01982909,-0.08699769,0.06688794,-0.028657869,0.03706601,0.031559736,-0.0033950615,-0.06408357,0.012553325,0.12098929,0.19519544,-0.09771446,0.006521601,0.026824651,-0.10517925,0.083599515,0.04209106,0.016046984,-0.049088832,-0.08790001,-0.1638907,-0.07085479,-0.1597423,0.08945209,0.043510273,0.09915197,0.07481146,-0.31300417,0.10040395,-0.20188938,0.009936112,0.078367524,0.1674402,-0.05412838,0.05546166,0.10278534,-0.22944039,0.06953066,-0.07101155,-0.037584618,-0.021819307,0.13865721,0.050406955,-0.02074669,0.10974156,0.09606524,0.29365554,0.060043197,-0.019713227,-0.21429831,0.1845836,0.024618194,-0.051877867,-0.12140275,-0.026987344,-0.05063831,-0.023755949,0.008555692,0.008612525,0.002865687,-0.21856318,0.032530993,-0.07763557,0.046964206,0.14369893,-0.035887867,-0.10764336,-0.026667349,0.17041834,-0.008993393,-0.031113058,-0.085956804,0.10669311,-0.09513505,-0.1524048,0.1145987,0.037100263,-0.024898242,0.09736469,-0.11646116,0.21156979,0.173841,0.18365726,0.10063389,0.141384,-0.11273087,0.1466471,0.4715038,0.16456503,-0.008234076,0.073298305,0.15525883,-0.2709865,0.040575884,-0.009664919,-0.071432985,0.010368481,0.021452624,0.07769214,0.00011508376,-0.06338602,-0.01838618,-0.020390982,0.1426046,0.068426274,0.08089349,-0.08151621,0.044092458,0.024569944,0.009273104,0.025081066,0.2585199,-0.053411834,-0.0660177,-0.123672225,-0.034459908,0.1733202,-0.07663623,-0.13956669,0.14286253,-0.108059235,-0.09877007,-0.0046756244,-0.029170388,-0.06342514,0.118374914,-0.021742431,0.1959915,-0.092313945,-0.0074782,0.26166704,-0.072189994,-0.119923055,-0.0041838605,-0.05006706,0.20863536,-0.06529359,-0.066572785,-0.13503051,0.015549176,-0.08011839,0.054874368,-0.046756677,0.12388253,0.0258997,-0.043373242,0.040418044,-0.106221095,-0.105731525,0.14202642,-0.22377312,0.3145117,0.1631443,-0.0663737,0.03611327,-0.097173646,-0.074455634,0.07158394,0.092324324,-0.013893817,0.054635778,-0.068989895,-0.16168483,0.30379665,0.13372222,-0.088697135,0.09635345,-0.2572549,-0.08386337,0.010586541,-0.16002142,0.26697606,0.2033292,-0.11551533,0.089663334,-0.16409463,0.08970964,-0.1300793,0.23839456,0.0009908415,0.12153752,0.17640716,-0.010864762,0.037458226,0.0052379556,0.1357321,0.009300179,-0.04532016,-0.10046033,0.07022401,0.16657159,-0.019763641,-0.020360336,-0.13316801,-0.13708718,0.13757274,0.19270374,-0.089034386,0.13203633,0.13804594,0.08397275,0.11656627,0.14177443,0.074494414,0.043667607,0.22580557,0.030887194,-0.032842826,0.052704107,0.0005957391,-0.115027145,-0.17780282,-0.15030588,0.017282272,0.013393324,-0.020303,0.0007900223,-0.082587555,0.0095276665,-0.028607376,0.07388958,0.17892158,-0.057730697,-0.13081966,-0.2721659,0.072677426,0.076918066,-0.09065114,0.021579454,0.052002523,0.24231344,0.06043542,0.030535772,0.053721283,-0.037817683,-0.1203276,0.02880722,0.1264627,-0.13589746,-0.10945744,-0.3468053,0.090545945,-0.05246683,-0.009048816,0.009530995,-0.0022752304,0.20025167,-0.081704445,-0.01545886,-0.41138133,0.08148183,0.20218395,0.074440815,-0.16430227,0.07808315,0.061599422,0.14491194,0.023706123,0.18279406,-0.13380726,-0.011023823,-0.008797184,0.012186382,0.06847427,-0.18355931,-0.07459249,0.22012152,0.062574565,0.0050371317,0.03852404,-0.006475121,-0.08101104,-0.12609968,0.07790615,0.10062157,0.12693685,-0.09309014,-0.05469244,0.0283859,-0.041447677,-0.06542538,0.18900602,0.09914303,0.07796085,-0.081293136,0.03467364,0.069147594,-0.06430176,-0.16752928,0.0054108016,0.022669256,0.11183415,-0.043642245,-0.21839157,-0.16485572,0.019209974,0.015762001,0.0058450885,0.07671177,-0.28910172,-0.105176955,0.099776074,-0.030326802,-0.12437414,0.12392213,0.00053943135,-0.12707022,0.23952404,0.1445321,-0.049456116,-0.11540346,0.077962235,-0.25828177,0.115559526,0.18391946,-0.009458062,0.13088669,0.14383548,0.07190287,-0.16415061,0.07488132,-0.058661617,0.1598996,0.04142268,-0.107731104,-0.07693653,-0.035771254,0.09818651,-0.15403481,0.07274339,-0.035436258,-0.19865972,0.006270388,0.10156377,-0.03810399,0.03156779,-0.055749215,0.069682874,-0.0067017525,0.057017673,0.5586255,0.07777363,0.056213237,0.13035038,-0.036172103,-0.0015237518,-0.04654142,0.046336383,-0.25934547,0.11707547,0.022113625,-0.14904122,-0.022222936,0.004495632,-0.14164847,0.045486547,-0.02102162,-0.008662738,0.16164942,0.096269585,-0.047386967,-0.030006297,-0.05221142,-0.06399991,-0.11326512,-0.0090634255,-0.08596408,-0.087395996,0.030729694,-0.057337906,-0.05078748,0.09259288,-0.021103166,0.013936117,0.051837683,-0.03814941,0.071119204,0.078251205,0.032747187,0.13814992,-0.083689444,0.1524865,-0.022221608,0.16527298,-0.027326144,-0.06011559,-0.11059302,-0.054861657,0.077474296,0.016162984,0.0889062,-0.17786756,0.030268025,-0.07529998,0.03708061,-0.05224021,0.09363808,-0.15138961,-0.10276698,-0.013854556,0.006963905,0.20720658,-0.08816062,0.15308434,-0.031464804,0.12151675,0.1365396,-0.13333255,0.03748493,0.16135524,-0.0777598,0.08511223,0.1283513,0.32978278,0.037360348,-0.11149755,-0.0020334981,-0.20229197,-0.06651833,-0.06811024,-0.028582837,-0.050431788,0.0179642,-0.04525642,-0.036701184,0.12413728,-0.089842655,0.048611093,0.050031044,-0.0013272949,0.11234331,-0.18170398,-0.13784455,0.026834466,-0.043411613,-0.15537776,-0.26439458,-0.24155602,-0.017889304,-0.118177414,-0.11464116,-0.068479195,-0.06619465,0.07272699,-0.091948435,-0.07505884,0.1767076,0.032920413,0.080790006,0.268943,-0.050394773,-0.14598796,0.09063076,-0.18610474,0.016864624,-0.04777084,0.041569524,0.08170082,0.26622838,-0.22923651,-0.11868813,-0.013899019,-0.021123147,0.20094,0.060421877,-0.117848314,-0.039704498,0.010511208,0.04960522,0.04792846,0.03507442,0.06745294,-0.09239571,-0.12056495,-0.056386903,0.00082878396,0.048768006,0.20299247,0.036125153,0.12468653,0.12804523,-0.10228728,-0.0704776,0.08269233,-0.11586575,0.03366578,-0.14228824,-0.16405173,-0.12656105,0.007064053,-0.06796555,0.06473973,0.042342275,0.049711265,0.006477911,-0.12655872,0.20280993,0.0021430291,0.0022425866,0.18518285,0.09334383,-0.114832185,0.10277103,-0.028687522,-0.043026496,0.04499696,0.013070657,-0.12944196,0.0036158236,0.028707378,0.026787411,0.17598443,0.021526886,0.18700147,0.010757757,-0.14348398,0.04171934,-0.0996072,0.1319428,-0.16736531,-0.013278092,0.05184804,0.042053826,-0.0018799873,-0.15771174,-0.07524699,-0.052030757,-0.15153138,0.063008115,0.13001387,0.04126716,-0.09612318,-0.16831054,-0.07175868,-0.058948517,-0.08957739,0.14905442,-0.16915068,0.08030814,-0.06797242,0.042543434,-0.013352428,-0.11515416,0.018908544,0.23393562,-0.07755612,-0.015535484,-0.09268915,-0.02554169,0.07160834,-0.053914584,0.032739405,0.010059651,-0.10463947,0.047408834,0.08499715,0.059558768,-0.0077909357,0.08056229,-0.065433964,0.044517547,0.007125074,-0.07556103,0.06551315,0.04648927,0.056036826,-0.23542535,-0.20556034,-0.05707105,-0.26772183,0.028310709,0.011384465,-0.0697774,-0.08106358,0.016989745,0.05944494,0.0773354,-0.17301567,-0.177846,0.010169579,-0.054492675,0.04200014,-0.088374466,-0.0328202,0.16171238,-0.020990938,0.047116406,0.06955194,-0.033820514,-0.11846408,-0.015484456,0.014044224,-0.1940153,0.02941151,0.13549502,0.16290255,-0.058343686,-0.21408066,-0.042051945,0.33289632,-0.0443863,-0.10582776,-0.081062995,-0.11820924,-0.11730899,0.06372201,0.1691186,0.109707505,-0.040436067,-0.10538669,0.1299089,0.2103805,0.0033682361,-0.05140599,-0.055976175,-0.04669942,-0.087597854,-0.118245,0.08965973,-0.058627754,0.018555742,-0.10079579,-0.004234541,-0.12317615,0.017610436,-0.06531682,-0.091959536,0.07818003,-0.115948625,0.07353038,-0.04202845,-0.10011895,0.1592912,0.03201744,0.15153348,0.21801981,-0.10273047,-0.00807961,-0.063770995,-0.16280547,-0.11994443,0.123322785,0.004987918,-0.08381258,-0.08269307,-0.3622366,0.14896008,-0.010638855,0.018811189,-0.011531752,0.08684854,-0.0134101575,0.15964825,0.0807525,0.021709956,0.20879947,-0.04860917,0.0763226,-0.19070499,0.009962894,0.17307802,0.07145479,0.066691756,0.013163505,-9.221787,-0.0091611575,0.039599985,0.023745997,0.146734,0.33760488,-0.07569965,-0.05791783,0.069525465,0.13313821,-0.013624605,0.026417099,0.0654065,-0.07450583,0.12378948,-0.03950078,0.050643608,-0.00057469285,0.17495416,0.2162751,-0.059633896,0.023343131,-0.030568913,0.10762882,0.11232667,0.026755653,-0.040180735,0.13641357,0.13379765,-0.0793956,-0.0048160143,0.08567557,-0.023189072,0.0925505,-0.02935557,-0.0074279904,-0.06314319,0.018445384,0.03466243,0.10720147,0.0027778149,0.038154908,-0.07727384,0.014461298,0.11646563,-0.26220927,-0.051531777,0.004496962,0.08625003,0.08952095,0.16694231,0.032201465,-0.0051051825,0.09720239,-0.16308744,0.003427267,-0.012057528,0.20660032,0.068131894,0.067921326,-0.2356507,-0.04929841,-0.011920467,-0.08122101,-0.07307996,-0.021453066,-0.063526645,0.024652638,-0.09474799,-0.026709227,0.110387005,-0.14924753,0.18167447,0.1036652,-0.039404854,0.086423814,-0.0074090455,-0.100013524,0.15040721,-0.10451702,0.043687508,0.0021423884,-0.16361661,-0.07196273,0.038380533,0.053009532,-0.030563824,-0.0064502377,0.034220234,-0.08284382,-0.004510988,0.03488116,0.10453868,-0.130745,-0.06909258,-0.010924958,0.06264502,-0.16548811,0.16938162,-0.076697856,0.13089709,-0.17022832,0.06340554,0.13107823,0.26508707,-0.03256556,0.12728755,0.047331654,0.019414078,0.01970906,-0.041738406,-0.08328229,-0.30171388,-0.025501858,-0.042210534,-0.043927852,-0.060783327,-0.2623068,0.15814948,0.03241119
P06479|CHEMBL1820|Thymidine,0.0977352,0.023556694,0.11466643,-0.025663476,-0.077007644,-0.044683956,-0.018103257,-0.07976865,-0.10366964,0.082601264,0.08588124,0.102207415,0.081925794,-0.018245492,0.12769216,0.028376583,0.05298164,-0.07419302,0.02659288,-0.041845173,-0.0019959873,-0.18932621,-0.014025241,0.16509663,-0.15775314,0.0017892495,0.016199088,0.040942777,0.015006529,0.03453487,0.0072920145,0.02574354,0.09780923,0.03031021,0.08200272,0.064374425,-0.013840355,0.013236936,-0.1718529,0.014336832,0.15347676,0.09766426,0.26167405,0.07535565,0.058728643,-0.015564018,0.012061849,0.08154468,-0.038495913,0.040598154,-0.073347464,0.035045326,-0.20688154,0.051944427,0.08240525,-0.046359926,-0.07492791,-0.019853234,0.15948719,0.04816904,-0.026422396,0.06670421,-0.07921679,-0.023873452,-0.0031697117,0.03666901,-0.16097574,0.22932537,-0.13741872,0.05551285,-0.030065345,-0.15164573,-0.10912091,-0.19835806,-0.014198825,0.16305238,-0.015947063,0.04489562,-0.04579712,-0.08835726,0.025879884,-0.11475675,0.15301256,-0.093655854,-0.07044887,0.13836461,0.0039197337,0.08666368,0.06380347,0.014426681,0.09015431,-0.015254427,-0.019765237,-0.060312204,0.05916089,0.071145326,0.0033942023,-0.05743292,-0.025347987,-0.16869584,-0.10614674,-0.01841943,-0.07545032,-0.08040534,-0.123457655,0.07824078,-0.20610482,0.041048206,0.00647727,-0.018371232,0.059790086,0.060723636,0.17824028,0.04030591,0.10356421,0.18255152,0.020334844,0.1560809,-0.061245263,0.0064557437,-0.028334454,-0.014273677,-0.016667474,0.026306631,0.0068995766,-0.19232538,-0.10121688,0.0507034,0.1263695,-0.08759553,-0.02444074,0.07103613,0.09775639,0.0234909,-0.033758104,0.11729973,-0.024369199,-0.011659525,0.0033923308,0.098606676,0.116478026,0.1099899,0.0039174235,-0.06748535,0.1267161,0.07316024,-0.09765527,0.04203246,0.075662546,0.065430075,0.09222466,-0.27910668,-0.17291817,-0.046182364,-0.051523816,0.15374896,-0.025305536,0.21311702,0.088993624,-0.059003305,-0.10599919,0.0074534696,-0.07800888,-0.031058237,-0.106613636,0.06562262,-0.02855001,0.08052914,0.056745976,-0.09673042,-0.051740713,-0.07320084,0.044605352,0.012756046,-0.11664425,0.060094103,-0.1704306,0.11682179,-0.052705977,-0.09658318,0.013586301,0.010775026,0.15234105,-0.035793476,-0.014181974,-0.12989227,0.034635115,-0.002297122,0.0038693587,0.12070801,-0.18791263,0.19568698,-0.04774361,0.07898772,0.15005752,0.09205644,-0.2789282,0.06569962,0.11957613,0.042059414,-0.04573268,0.007796755,-0.046646904,-0.1401232,0.067558154,-0.09129362,0.13132054,-0.025673453,-0.043474145,0.06934394,-0.09187489,-0.12833905,-0.06508923,0.07496324,-0.07713357,-0.029832242,0.012580933,-0.10219622,-0.03144763,-0.07103014,-0.11355646,0.1209175,0.052911036,-0.11957131,0.11287342,-0.031618048,0.045421593,-0.11907358,-0.17563623,0.0076900795,0.17283541,0.2848215,-0.056840926,-0.08491564,-1.1673965,0.06727861,0.05478392,-0.09374385,0.11263325,-0.04654656,-0.065431684,0.120045975,0.20232752,-0.08286336,-0.060099665,-0.010226265,0.053978372,-0.11139395,0.04765179,0.18282343,0.0859279,0.0060162875,0.106127806,0.0068742773,0.0641353,-0.05019203,-0.09646663,-0.07499734,0.008517064,0.012696572,-0.22550099,-0.08369006,-0.094078414,-0.0014621834,0.016777428,-0.09175507,0.1564028,-0.03520473,-0.06744369,0.010778246,-0.07571901,0.016101733,0.0002672039,0.076024726,0.030983817,0.14924346,-0.043569498,0.1654736,-0.023689484,0.016605917,0.0883524,-0.013989501,0.00082749873,0.09428328,-0.07909703,0.24337783,0.08491415,-0.07798339,0.042468358,-0.094616726,0.072226815,0.048940346,0.043687765,-0.021346329,0.044243746,-0.081928134,-0.105997935,-0.054757465,-0.056567837,0.009103183,0.16829431,0.10946157,0.01831786,0.044094574,0.06497949,-0.097495444,0.2960999,-0.0803232,0.14234775,0.18881409,-0.04827611,0.0242628,0.2091188,-0.047172554,0.0022709593,-0.15060186,-0.17085531,-0.0002388116,-0.09764772,0.09137088,-0.068750784,0.12855649,0.009268392,0.0825142,0.022199057,0.033841506,-0.0377944,-0.15158917,0.04634226,0.04408727,-0.05321819,0.03449663,-0.0796233,-0.05051171,-0.18857455,0.086016074,0.071262,0.080592416,0.27630678,-0.020309566,-0.015268621,-0.03183111,0.034740344,0.1451867,0.21663955,-0.1681199,-0.053398684,-0.014077948,-0.13983141,0.01587401,-0.054225825,-0.015466232,-0.0024657417,0.0021538078,0.0558999,0.090889424,-0.041393757,-0.08547397,-0.10171112,0.08684452,-0.043340627,-0.039606374,-0.02916897,-0.07058874,-0.06988618,0.011572076,-0.08317764,-0.10088804,0.14822385,-0.0036677215,-0.08034141,-0.29207078,-0.020448182,0.056758206,0.19735716,0.2629877,0.058838896,0.03863112,0.11494477,0.040352605,0.06821622,0.07718315,-0.002727677,-0.047841057,0.022680523,-0.21693632,-0.025385264,0.06037599,-0.05042996,-0.0051685646,-0.12000571,0.052503392,-0.05544249,-0.053195626,-0.09108613,0.090329595,-0.06643099,0.043944433,-0.038203456,-0.013513507,0.04066043,0.05224458,-0.16831556,0.29062384,-0.019086042,-0.09899778,-0.05856833,0.031923566,-0.08858869,-0.056362785,-0.115480945,-0.032892995,0.09198949,-0.122430384,-0.15264842,-0.01870085,-0.0077787675,0.08312933,-0.110654905,0.054509215,0.04727176,0.22765294,0.10869272,0.19086784,0.0035877442,0.11116343,-0.10214796,0.060869623,-0.21688996,0.17590918,-0.015195295,-0.13800262,0.02640985,0.050752092,-0.10466628,0.08777718,0.09054381,-0.048077215,0.017943762,-0.022110848,-0.052120004,0.004009017,-0.11393812,0.05396734,-0.065277874,-0.0011324361,-0.02486316,0.14913887,0.03035798,-0.12540242,-0.04854241,0.14267144,-0.044991225,0.017337175,0.013422841,0.09755401,0.096389584,0.06822342,-0.006428429,0.072616056,0.023402693,0.12322457,0.01877306,-0.068699,0.13260849,0.0027702488,-0.06343413,0.02200931,-0.0021606882,-0.04386299,0.08065368,0.16686666,0.06975737,-0.009872437,0.09710302,0.13295577,-0.08169129,0.05756625,0.011230037,0.11759997,0.00035786023,-0.03452186,0.03351291,0.0033424934,-0.016814845,-0.026026167,0.12519881,0.0524838,-0.07834289,-0.085823305,-0.04741483,0.2511792,-0.10933218,-0.008524606,-0.052329686,0.2567907,-0.016583914,-0.027478032,0.011273136,0.052901097,0.06022044,0.10648919,0.020143375,-0.005268531,-0.091756165,0.12199333,0.15091112,-0.12788834,0.018537229,0.08042886,-0.11272845,0.17080568,-0.0054281224,0.12363458,-0.0972691,-0.077387914,-0.076094575,0.069054015,-0.14164843,0.12714379,0.013046397,0.009078665,0.1409393,-0.22823961,0.14922796,-0.22126938,-0.0890101,-0.0069936337,0.0060040182,0.006894063,0.05720367,0.04342487,-0.2338733,0.07805364,-0.05313486,0.002400197,0.0140139945,0.12361358,0.07608522,-0.035794977,0.13352646,0.036708888,0.27452534,0.06012877,-0.062280692,-0.24832249,0.08077395,0.033736344,-0.050930236,-0.12322568,0.005762659,-0.050991632,-0.07514766,-0.049517184,0.059352838,0.09053448,-0.23491463,0.050450325,-0.09684509,0.013641015,0.123479724,-0.06947545,-0.034450658,-0.013076987,0.16563275,-0.08532769,-0.0013193898,0.032045253,0.14403181,-0.034853816,-0.080855615,0.057753738,0.05043324,0.02986724,0.06647798,0.05029614,0.19678235,0.12597035,0.13467994,-0.020568404,0.144048,0.0015341453,0.0341315,0.5139681,0.06382057,0.07703427,-0.01519784,0.097803265,-0.28981316,0.09416085,-0.05888307,-0.05511616,0.053906236,0.009308967,0.096086495,-0.0263995,-0.08791281,0.018182047,0.09957239,0.23303927,0.050034944,-0.009923376,-0.08220084,-0.073467284,0.057388112,0.011791442,-0.020571541,0.18282923,-0.08372606,0.029252592,-0.07238859,-0.06235282,0.106822975,-0.061379142,-0.07284951,0.096927516,0.0481352,-0.053445227,-0.041657772,0.01596693,-0.0108975675,0.1715463,0.01070391,0.04651238,-0.023585523,0.07567118,0.19459993,-0.11820764,-0.12590814,0.14371915,-0.018769838,0.11861938,-0.0714123,-0.035485405,-0.10402123,0.08624766,-0.11204624,0.052989364,-0.047844753,0.08804246,0.0104746185,-0.004728187,0.06589912,-0.18026869,-0.14105454,0.18281698,-0.21051024,0.22556359,0.19604822,-0.05121237,0.051158346,-0.086282164,-0.08505312,0.00247192,0.024964375,0.04056675,0.01957338,-0.10537566,-0.09812902,0.2835935,0.09672227,-0.037421603,0.06483944,-0.13778615,-0.06360467,-0.028563563,-0.15049969,0.22520335,0.06314419,0.0388208,0.017094936,-0.066630475,0.034900393,-0.13374458,0.33872584,-0.08514822,0.13323468,0.21484713,-0.04077401,0.01784408,0.10965821,0.05468452,0.020236341,-0.07058915,-0.13284683,0.08428134,0.13493405,0.046475563,-0.051350266,-0.1255761,-0.09526234,0.18697463,0.14728385,-0.07322597,0.1502398,0.10580361,0.06920095,0.048328586,0.15210854,0.18092632,-0.012969956,0.09693837,-0.053897418,-0.05285055,0.015879914,-0.0005900264,-0.09838667,-0.15237714,-0.059668187,0.03960442,-0.04333721,0.027214859,0.00870082,-0.059844464,0.03437416,-0.15349926,-0.05668231,0.09353269,-0.05242092,-0.07278033,-0.2680972,0.07914713,0.054174863,-0.05383268,0.07990168,0.029880935,0.19180164,0.005079055,-0.05610837,0.05450611,-0.01746296,-0.1817995,0.0901182,0.10573611,-0.082672745,-0.17852308,-0.31769213,0.11374058,-0.13434811,-0.05225173,0.066261336,-0.07228109,0.13629037,-0.09935901,-0.044814818,-0.12533207,0.053804774,0.12545896,0.072104484,-0.24506083,0.082769014,-0.0057507977,0.068223454,-0.033391993,0.04511719,-0.01607513,-0.10911673,-0.025114138,-0.0063287932,0.10538616,-0.23592682,0.023935592,0.10979416,0.055095077,0.10851643,-0.044571735,0.039555535,-0.050297044,-0.06626622,0.044489004,0.08686059,0.09289105,-0.016769333,-0.051773105,-0.05797506,-0.039115854,-0.06458277,0.15835409,-0.007047955,0.10433414,-0.058296815,0.023912195,0.06946139,-0.13476707,-0.13070771,0.019216646,-0.037046388,0.07843122,0.052113973,-0.14195754,-0.16106114,0.030469486,0.02307468,-0.0061428696,0.023088902,-0.31840718,-0.060228944,0.0014958512,-0.06177611,-0.12321225,0.11222751,-0.017836262,-0.13042511,0.19253072,0.10044623,0.052963734,-0.11173132,0.033643544,-0.17586082,0.008556878,-0.012988369,0.10724729,0.084231,0.1541928,0.14519843,-0.1318123,0.008700013,-0.13336585,0.24064875,-0.057810597,-0.15460314,-0.051942863,-0.09688308,0.079976395,-0.105658725,-0.08437896,0.02569022,-0.15050144,-0.006853927,0.09720282,-0.010230951,0.014743476,-0.0656792,0.04314684,-0.019172557,0.017857611,0.4859235,0.1796138,0.1347121,0.03858053,0.006194517,-0.02126644,0.023705013,0.12400158,-0.13200048,0.049534865,0.02301772,-0.10968767,0.038702253,-0.05529266,-0.09808618,0.03411681,0.052397016,-0.04097612,0.09309184,0.07960605,-0.0695489,0.07208857,-0.08110651,-0.046541158,-0.06347116,0.025498748,-0.038900584,-0.12050509,-0.00221243,-0.09135228,-0.08089176,0.12026692,0.0017078109,0.07757756,0.008568993,-0.019250995,0.017295226,0.10636392,-0.03193954,0.13003854,-0.043182407,0.15971504,-0.002620887,0.13633518,-0.08889663,-0.050858367,-0.10073167,-0.0041928235,0.04284664,0.032973483,0.11572717,-0.044671256,-0.021361753,-0.10660498,-0.0023432896,-0.065931536,0.1280596,-0.13485913,0.00438325,0.013702117,-0.01771389,0.18801488,-0.052041925,0.11910294,-0.09685828,0.14359337,0.022370739,-0.17079766,0.037606753,0.16684419,-0.029871468,0.034050588,0.14246045,0.34022632,0.05161239,-0.10739261,0.022465877,-0.13140109,-0.054205522,-0.053964075,0.0897907,-0.08163738,0.012022361,-0.0025813058,-0.058893554,0.03439173,-0.17938347,0.024986953,0.05088763,-0.022998475,0.13407625,-0.05253335,-0.11456771,0.0072700176,0.012992196,-0.04551703,-0.19980203,-0.23098868,-0.05694518,-0.0968961,-0.0881655,-0.02767238,-0.026516426,0.006970147,-0.0754593,-0.062041044,0.142495,-0.08678792,0.089857,0.18078944,-0.15334271,-0.14303258,0.0068946956,-0.0766402,-0.033668023,-0.024010843,0.0056009367,-0.0012137014,0.14827953,-0.09533991,-0.10604356,0.020923302,0.005036257,0.24377245,0.120091654,-0.057872556,-0.021319218,0.0154014155,0.047055878,-0.038443062,-0.029498935,0.04455308,-0.12336189,-0.009900933,-0.048001446,0.044492755,0.02209896,0.21558575,0.019980703,0.09846709,0.09962257,-0.07778358,-0.013894256,0.05083798,-0.08135925,6.185332e-05,-0.06878717,-0.21545468,-0.098355606,-0.03937735,-0.053244103,0.074889876,0.04340095,-0.014423832,0.020208173,-0.07877176,0.13321316,0.09760319,-0.021429695,0.21773908,0.10805229,-0.028839692,-0.00092246756,-0.08194738,0.015575945,0.022802424,-0.07705865,-0.02800048,0.030452158,0.027903173,0.09195678,0.14666763,0.022645066,0.12770106,0.12972045,-0.106079064,0.036938526,-0.1390903,0.11352071,-0.17192832,-0.015438845,-0.026019044,0.15306823,-0.023142692,-0.15435559,-0.075806744,-0.03377711,-0.11376745,0.041764997,0.113610335,0.10817556,-0.06778014,-0.05551805,-0.012294249,-0.007578727,-0.05550766,0.12236413,-0.16005592,0.0944384,-0.1046135,-0.026682617,0.07231517,-0.052862257,0.07788848,0.16045074,-0.11934408,0.0044237357,-0.060604014,0.032558136,0.035957377,0.0052630715,0.048599795,-0.05820692,0.03403929,-0.043404438,0.039902665,-0.031095427,-0.002401987,0.11417237,-0.15307948,0.052491866,0.01290312,-0.0019743945,0.10720048,0.09037263,0.073320515,-0.18685041,-0.19821043,0.051586844,-0.24929248,0.068503045,-0.02363563,-0.010590013,-0.16162962,0.1239928,0.15513524,0.11446793,-0.15967257,-0.08796748,0.07287722,0.07379338,0.03324242,0.01924012,0.017800035,0.11396593,-0.0015102755,0.11835106,0.097950324,0.016283711,-0.1652791,0.0296386,-0.05448521,-0.19457763,-0.08965883,0.111887574,0.22694749,-0.11735207,-0.11511148,-0.03862331,0.266394,0.065542415,-0.13899443,-0.11557418,-0.22644472,-0.07391554,-0.002195442,0.1906836,0.019821845,-0.0068585575,-0.13194595,0.005597068,0.16198835,-0.018945495,0.0057686632,-0.0152698755,-0.121599525,0.0024643075,-0.045965917,0.062311888,-0.004983971,0.16337419,-0.1016307,-0.012945518,-0.13334459,-0.07409159,-0.032153223,-0.013834333,0.038428333,-0.15252303,0.06197148,-0.108728305,-0.10125117,0.033350132,0.0503488,0.010319553,0.2539066,-0.04093483,0.023896545,-0.1154671,-0.08583939,-0.04252295,0.12884516,-0.017842352,0.03127773,0.0029454203,-0.3052257,0.1805663,0.015438693,-0.020711264,0.024286168,0.108716324,0.006486919,0.10662481,0.059569962,0.041559443,0.13998838,-0.05556368,0.004519934,-0.12257078,0.052147932,0.14217226,0.05631663,0.025258096,-0.031207815,-9.343403,-0.02421757,-0.039988905,0.027540678,0.15428352,0.2574554,-0.020344952,-0.0095460955,0.034756117,0.07379744,-0.009953139,-0.024475561,0.030542398,-0.07088788,0.014725061,-0.025542147,0.059042167,0.02882136,0.08787783,0.29622582,0.086519934,0.11463795,-0.07226517,0.036380023,0.1370511,0.14150235,-0.056050226,0.16763155,0.048233002,0.020876376,0.011557754,-0.04261513,-0.03310646,0.13596568,-0.08117857,0.09453164,-0.013208158,-0.045552004,0.056965016,0.13319623,-0.023670033,-0.015744863,-0.08358806,0.034837853,0.11115289,-0.2027525,0.022119388,0.062788114,0.1287987,0.0722147,0.1589914,0.0636036,0.04900162,0.08048781,-0.10249363,0.017868243,-0.03058391,0.17033571,0.09088258,0.011504013,-0.13710012,-0.049663473,-0.053968873,-0.069286615,-0.047421142,-0.065644465,-0.021184605,0.03361889,-0.12008791,0.013298636,0.1099853,-0.053345356,0.103964835,0.16610633,0.04490429,0.096371606,0.025066968,-0.11869728,0.12919942,-0.06828821,0.0634693,0.10264524,-0.17970708,-0.05688361,-0.005042624,0.0021275743,0.037139647,-0.09381083,0.08057995,0.059828267,0.065757334,-0.082565606,0.042238966,-0.025441222,0.012234159,0.023778535,0.030174235,-0.12953731,0.1421283,-0.06192225,0.24104024,-0.042568613,0.02549791,0.09579976,0.31009012,-0.031037545,0.19103907,0.015877247,0.13310425,0.024056643,0.048419267,-0.12302226,-0.10508945,0.04096468,-0.033842515,-0.00042080507,-0.024087554,-0.27454218,0.16383022,0.013563395
P68400|CHEMBL3629|Casein,0.043439593,-0.021616217,0.14083049,0.06862697,-0.029984294,-0.022468835,0.045686174,-0.111514024,-0.11091717,0.13365021,0.11536951,0.0748195,0.110214524,0.09493522,0.1447812,0.04558535,0.02779113,-0.085214734,0.04439218,-0.04458618,0.030213524,-0.11984487,-0.01932858,0.074391074,-0.18100408,-0.11288974,0.03765893,-0.033937052,0.021736063,-0.019418031,0.011998858,0.07026437,0.10270254,0.10094984,0.03598426,0.11152299,-0.11429215,0.03581979,-0.19415998,0.07986714,0.13065968,0.017482316,0.3244465,-0.031625874,-0.016987674,-0.1159843,0.008276998,0.067553654,-0.04420986,-0.0021175575,-0.14143701,-0.019598477,-0.14191899,0.071214765,0.18962577,-0.006796959,-0.106427744,-0.10874336,0.12967284,0.085215494,-0.06281957,-0.0042379666,-0.1000877,-0.0615831,-0.043213047,-0.0055747945,-0.13005681,0.2459488,-0.0987407,0.044990905,-0.05775177,-0.07960601,-0.14476761,-0.22169027,-0.03330984,0.24932727,-0.022821145,0.07503353,0.021362726,-0.023262376,0.03624849,-0.013086064,0.121204466,-0.049218982,-0.030599779,0.037872672,0.0012199637,0.044605464,0.1305054,0.017186772,0.058075335,0.07422651,0.0055680242,0.0025629913,0.031716973,0.001549419,0.08416328,-0.08876148,0.068036765,-0.156071,-0.08766804,-0.05577513,-0.10758484,-0.05271425,-0.12017079,0.061516967,-0.18985352,0.060908347,0.04555609,-0.15100634,0.10906777,0.07347061,0.13797882,-0.001063522,0.087043226,0.1970414,-0.07974121,0.115774535,-0.058364697,0.097108655,-0.047201253,0.031394485,0.058242384,0.1166346,0.041298073,-0.25789577,0.0042603742,0.120528,0.0788065,-0.12289888,-0.073846236,0.07166215,0.15982586,-0.11257756,-0.002832803,0.11878185,0.033876896,0.08225227,0.0057308967,0.0066827685,0.069732055,0.05715796,-0.020271022,-0.11777644,0.22679198,0.13603157,-0.046683192,0.011241955,0.11504863,0.15191388,0.19328049,-0.25563174,-0.2047219,0.015368313,-0.078814074,0.11251381,-0.020124923,0.22156475,0.13357489,-0.00093939435,-0.19039787,0.054066204,-0.082287975,0.006670475,-0.15248041,0.09519393,0.040368717,0.07451675,0.03081251,-0.08055171,-0.1416658,-0.082932405,0.009943292,0.0006224252,-0.20520248,-0.03733995,-0.12523288,0.11190021,-0.11069022,-0.06275505,-0.015209614,0.023593012,0.16049683,0.055628613,-0.020716554,-0.107678115,-0.053039577,0.0066118194,-0.011017731,0.22591782,-0.14811799,0.14651555,-0.054288782,0.0072378805,0.17819776,0.05295142,-0.2558726,0.05653935,0.12601343,0.011613649,-0.04505322,0.053829603,-0.124402545,-0.06891275,0.07774119,-0.18065108,0.0941822,-0.0916977,-0.1184869,0.017715424,-0.09205967,-0.10153942,-0.07340358,0.12255171,-0.17523965,0.029563583,-0.09145285,-0.08565037,0.020056663,-0.1111404,-0.16626082,0.08393975,0.13408339,-0.09024268,0.11119744,-0.036451276,-0.01765809,-0.1510472,-0.20544653,0.05917742,0.21509342,0.41117394,-0.11833006,-0.1368052,-0.49188718,0.11303118,0.13206261,-0.101489305,0.14985527,-0.035158206,-0.06676377,0.15235275,0.21786387,-0.11283357,-0.0493933,-0.03617906,0.098675966,-0.038460445,0.05282008,0.23711064,0.009389415,-0.0004794374,-0.01284303,-0.009602479,0.013661044,0.08939865,-0.12698442,-0.17160255,-0.08383286,-0.09472124,-0.24610317,-0.04150412,-0.11652957,-0.041418795,0.04356277,-0.0935483,0.14542061,-0.0189497,-0.052740425,0.06726867,-0.102161795,0.013782034,0.005836405,0.12172113,-0.019107787,0.13337068,0.038669564,0.25192404,-0.018778449,0.054838553,0.069503486,-0.07789501,-0.0022976762,0.06189584,-0.034256898,0.11802107,0.037711486,0.04191482,0.11850135,-0.02695,-0.005178217,0.05126152,-0.004974041,-0.053772878,0.06709761,-0.029995564,-0.030877866,0.042181965,0.007910087,0.030489907,0.16744044,0.07266732,-0.075484015,0.11170264,0.026673239,-0.093930624,0.25887582,-0.09198714,0.045049757,0.24804349,-0.013092663,0.07413419,0.20296618,-0.024802651,0.0034872293,-0.11330182,-0.13856448,-0.03045312,-0.08260124,0.14245085,-0.119184054,0.119094834,0.09539934,0.14449847,-0.02094179,0.020022262,-0.06510345,-0.20394424,0.03577984,0.119920015,-0.02934931,0.01262218,-0.10587126,-0.073767565,-0.15420672,0.0039230194,0.12577584,0.034511335,0.17071432,-0.07947165,-0.040965024,-0.06589541,0.108360775,0.07950354,0.25646418,-0.16074626,-0.05323652,-0.01819596,-0.043257475,0.009395003,0.08092465,-0.016743321,0.010775708,-0.00931439,0.13140199,0.09856966,-0.0137464255,-0.14678808,-0.059591003,0.17511234,-0.0066339113,-0.06006124,-0.07834026,-0.07034646,-0.088531315,-0.02161197,-0.092920564,-0.13665433,0.1340903,-0.06306436,0.018446,-0.23489553,-0.0497979,0.04057581,0.21439968,0.36469355,0.017521631,0.03231764,0.21579154,0.04970419,0.060160942,0.15839174,0.053032562,-0.07692066,0.03817029,-0.27069494,-0.04741601,0.13075812,-0.036184,0.00080985203,-0.12533137,0.029142324,-0.033209875,-0.15396582,-0.09409997,-0.03179183,0.05038546,0.13825935,-0.047135837,0.084303044,0.03525252,0.06771047,-0.16835332,0.4005613,-0.0211523,-0.06419844,-0.06897562,-0.047818046,-0.12601362,0.0018298281,-0.11437353,-0.02471745,0.14207031,-0.08569567,-0.10219349,0.050415166,-0.044398136,0.1432971,0.009588713,0.060818292,0.03605865,0.29418248,0.115129225,0.16464351,-0.0067484807,0.06305195,-0.13270664,0.031172968,-0.16352627,0.23349805,0.012147604,-0.1894704,0.061187014,0.07433322,-0.19509122,0.13497217,0.06987492,-0.03611762,-0.0034289882,-0.039056864,-0.074885234,0.012098871,-0.07949499,-0.019047927,-0.11983921,-0.013601294,0.008842499,0.10157682,0.15217218,-0.119524434,-0.07715096,0.15874407,0.04511606,0.013281847,-0.011497066,0.15068321,0.12974742,0.12180554,0.0057222517,0.13554406,0.0884932,0.08780276,0.00828835,-0.1412645,0.028438237,-0.0044327946,-0.06816637,0.062625624,-0.11153517,-0.059522115,0.14272706,0.20147382,0.12370996,0.06538503,0.05297047,0.096458174,-0.18493666,0.19883753,6.4097345e-05,0.06845235,0.076563984,0.07962633,-0.009743474,-0.043503966,-0.119513705,0.018332478,0.12714422,0.091838606,-0.021179006,-0.14877445,-0.019606035,0.20376778,-0.07540429,0.0357809,0.025671301,0.28407723,0.06457366,-0.08652264,0.011955097,-0.07406324,0.0011816088,-0.021305066,-0.06447384,-0.052799903,-0.05036949,0.059287846,0.21346265,-0.11019866,-0.020388668,0.14634708,-0.05045913,0.08028483,0.0156846,0.050590947,-0.017664647,-0.124650285,-0.1320596,-0.022563772,-0.13055907,0.09301038,-0.0153206065,0.04508781,0.043395065,-0.27898598,0.06752785,-0.22754404,-0.022018395,0.10711317,0.110210724,-0.06186405,0.1114388,0.0874662,-0.25187165,-0.000958801,-0.063394815,0.012513969,0.011061033,0.07835686,0.011311222,-0.063923106,0.14134182,0.06435796,0.3176609,0.0680096,0.028788975,-0.29353845,0.21149415,0.07035524,-0.012126077,-0.1359184,0.010179598,-0.04436887,-0.09905746,-0.0017666928,0.08704158,0.12846814,-0.21693201,-0.006510986,-0.12205905,0.05592979,0.098204926,-0.002822414,0.002198713,-0.029106412,0.18946669,-0.034386333,-0.03542223,-0.024202472,0.0957394,-0.03931982,-0.07841783,0.12676391,0.027015842,-0.015576878,0.08370357,-0.05801975,0.2330413,0.23289916,0.15674219,-0.020076886,0.0853321,-0.004706774,0.099762335,0.48224086,0.1254158,-0.047741868,0.029875616,0.16579247,-0.2578179,0.13391578,0.011037491,-0.057400476,0.085985385,0.067075014,0.13191184,-0.029794915,-0.03239255,-0.017727228,0.019185815,0.23354292,0.04089949,0.056271516,-0.08553772,0.045848247,0.0027545844,-0.040600095,0.007966301,0.24667287,-0.12994692,-0.02313081,-0.15664384,-0.091818064,0.09506452,-0.047353417,-0.03620003,0.064289495,-0.0063183913,-0.09108257,-0.09334415,-0.048966013,-0.06826393,0.13092913,0.033090346,0.13333862,-0.022356644,0.030435476,0.22182187,-0.147673,-0.09458238,0.020854497,0.03769505,0.22729456,-0.16378,-0.016656438,-0.08894411,-0.023083523,-0.14334552,0.07451483,-0.014625501,0.123265386,0.006111456,-0.026008874,0.07248177,-0.13894504,-0.02858415,0.1490751,-0.23209606,0.2640887,0.23002008,-0.04186156,0.021093534,-0.029299103,-0.0031522014,-0.04976257,0.054011285,0.029936176,0.012301808,-0.06912724,-0.2788186,0.34971884,0.054429196,-0.06395072,0.07489966,-0.25582218,-0.11639348,-0.10143761,-0.20648624,0.34111738,0.14338523,-0.009715693,0.03687105,-0.093992084,0.10718774,-0.19672903,0.2054739,0.04198063,0.07961009,0.19757903,-0.047721367,0.045677036,0.045003362,0.11665828,-0.013589384,-0.08739257,-0.042925876,0.040195614,0.16413143,0.06478506,-0.03384547,-0.11268509,-0.21604885,0.10281311,0.29057536,-0.1323431,0.10572095,0.11113377,0.112459555,0.030508906,0.19530605,0.13075154,0.0039030714,0.18233876,-0.019529277,-0.030820845,-0.055370443,-0.027632048,-0.05530531,-0.2517559,-0.073258966,-0.038918212,0.00427292,-0.005128145,-0.064279966,-0.07590322,0.07106443,-0.07283875,-0.032048035,0.13654417,-0.07979128,-0.08622542,-0.18051107,0.06716803,0.030590951,-0.10373513,0.029526662,0.015135423,0.25010547,0.037739534,0.087306954,0.049746897,0.020291477,-0.20417897,0.07735217,-0.017659832,-0.16304854,-0.10931184,-0.38503823,0.059845358,-0.15188193,-0.0071494463,0.029402025,-0.06114304,0.18398345,-0.09738637,-0.10351905,-0.32179514,0.08872449,0.18113515,0.12941277,-0.2195336,0.1582602,0.014325559,0.12163882,-0.05196182,0.09292847,-0.05236173,-0.056184307,0.022529736,-0.070675425,0.110794716,-0.26273918,0.034598522,0.1915199,0.022589844,0.08747015,-0.043650914,0.0128198415,0.0091468245,-0.04264892,0.095667206,0.109020896,0.04312871,-0.06838646,-0.047377028,0.007924838,0.014657296,-0.014054926,0.25159654,0.07600613,0.016051218,-0.11651455,0.038707662,0.04487384,-0.074281864,-0.18651363,0.02321845,-0.13483874,0.041547604,0.0023556463,-0.21386912,-0.11746533,0.004660923,0.013372799,0.048324216,0.03187771,-0.2756247,-0.11106537,0.0888551,-0.027320227,-0.19424011,0.18492311,0.0749166,-0.1736268,0.30816752,0.08786306,0.020542819,-0.018933838,-0.00351574,-0.22114563,0.119415484,0.032580618,0.09490215,0.14014846,0.13284498,0.088907376,-0.13893187,0.0038145208,-0.10542385,0.25047323,0.015200306,-0.13194592,-0.044793636,-0.08749831,0.15543899,-0.12943442,0.0018614251,0.031351276,-0.26638174,-0.008068666,0.06342582,-0.036246065,0.0392031,-0.14850423,0.10363747,0.0021014046,0.09222721,0.6143146,0.14826787,0.069997706,0.059063002,-0.015795797,-0.022949506,-0.0020824252,0.05684114,-0.16348341,0.12391968,0.12947538,-0.1413265,-0.006920496,-0.034981765,-0.12959805,0.021872252,-0.013835151,-0.034064684,0.090212576,0.061954137,-0.049342293,0.1153019,-0.057865724,-0.10297458,-0.063114464,0.031376444,-0.07643681,-0.09649871,0.002503924,-0.0064238133,-0.08364872,0.055362396,0.0638576,0.07162608,0.028446753,-0.046626728,0.008922078,0.068050995,-0.046835713,0.14877838,-0.046644,0.21196058,0.022555564,0.17259061,-0.09032166,0.0151726715,-0.08745091,-0.049143724,0.02610698,0.005370548,0.13008341,-0.06119945,0.048654802,-0.102804676,-0.0066030286,-0.042436007,0.102230124,-0.103553705,-0.019966938,0.032171194,-0.091777176,0.13712676,-0.1311438,0.07773482,-0.021912087,0.17109652,0.16683176,-0.11557092,-0.034728955,0.24831553,-0.07433863,0.060825773,0.19651143,0.3097496,0.018522399,-0.056654297,-0.0043707453,-0.19598787,0.00073787384,-0.12125017,0.019460253,-0.06650964,-0.013488887,0.028294263,0.01742594,0.0068649612,-0.18448517,0.026528317,-0.058600288,0.008255735,0.12318373,-0.07763766,-0.14846998,-0.01722936,0.020302854,-0.09343514,-0.25211024,-0.21257025,-0.052669343,-0.06202471,-0.097253054,-0.05266616,-0.11970088,0.09001486,-0.016826255,-0.08416411,0.1799902,-0.00062355027,0.06886217,0.25554365,-0.12824838,-0.17502971,0.024284147,-0.09316263,-0.04754602,-0.0005209816,0.049100794,-0.0068966486,0.19865707,-0.2611226,-0.11955713,0.01883747,0.0067071766,0.20868488,0.109826975,-0.078205146,-0.06933594,-0.045599192,0.011742299,0.050183572,-0.058976594,0.107450224,-0.08178974,-0.11122708,-0.08353343,0.07241961,0.028847154,0.2630666,0.018121555,0.15760657,0.14789434,-0.06935645,-0.04811117,0.09662809,-0.19892256,0.039565776,-0.101081446,-0.17489038,-0.13751344,-0.014722742,-0.1337494,0.06675445,-0.014519097,0.05102856,-0.0073695667,-0.12946758,0.04077166,-0.021559928,-0.013584856,0.15059064,0.08531334,-0.08639256,0.043542832,-0.052328072,-0.05404732,0.07817683,-0.032633454,-0.08812403,0.051356107,-0.006675236,0.039797887,0.11386574,-0.015544828,0.20292729,0.16174875,-0.15461606,0.089009665,-0.13630484,0.1642763,-0.22615883,-0.031103605,0.0071107545,0.093640074,0.06517305,-0.13500723,-0.07975152,-0.065085314,-0.13821498,0.0039735213,0.053967617,0.056383524,-0.10701505,-0.061780043,-0.080923185,-0.06237559,-0.11921743,0.21317428,-0.22484441,0.122569196,-0.0714538,-0.025838587,0.04829049,-0.072907515,0.07083544,0.22532454,-0.047947433,0.07036725,-0.13052005,0.0021768436,-0.022498108,-0.005900871,-0.02637212,-0.016351536,0.022176,-0.05924867,0.01358762,0.034696244,-0.022058971,0.07949322,-0.23072171,0.056316063,0.0910289,-0.011844195,0.14009877,0.033732045,0.14814547,-0.29076555,-0.14752921,-0.050606817,-0.32038498,0.011877887,-0.040761672,0.0725341,-0.14651749,0.03999524,0.1093518,0.11597486,-0.2557637,-0.14405376,0.0208006,0.02019033,0.09488952,-0.00054295687,0.07295083,0.12475795,0.014170565,0.04648854,0.1278143,-0.041750204,-0.14257357,-0.016903257,-0.04485944,-0.23736688,0.030239757,0.14183135,0.14792928,-0.06609145,-0.16644964,-0.005383979,0.20356305,0.023080595,-0.09543606,-0.07138181,-0.1512093,-0.10482429,0.017624192,0.23050395,-0.059031002,-0.11198106,-0.15185428,0.080827266,0.1552308,-0.0068918485,-0.04657929,0.002486758,-0.04516001,-0.08290232,-0.08204553,0.1309422,-0.093617074,0.07104145,-0.07863803,-0.05994281,-0.21756047,-0.0072376956,-0.13587856,-0.049382173,0.060557075,-0.00928796,0.07534517,-0.061883036,-0.06540495,0.17218456,0.06285993,0.03866504,0.24300838,-0.08531127,0.07263057,-0.047750678,-0.104545295,-0.024801284,0.14692098,-0.071782,0.008046299,-0.019915009,-0.47885844,0.17684737,0.040042106,0.07931915,-0.042383783,0.24536948,-0.038170584,0.118516624,0.08172591,0.07339097,0.11171064,-0.039690744,-0.00027428288,-0.22164588,0.0628332,0.22745214,0.07884432,-0.039860744,0.014331659,-9.163589,0.03626983,-0.03561016,0.04990543,0.12753186,0.33893824,-0.05027286,-0.035069246,0.10982945,0.057365038,0.034745984,-0.033377897,0.10470461,-0.11114486,0.111831784,-0.018915553,0.113960885,-0.031762347,0.18809086,0.26186824,0.039005503,0.062257178,-0.041412085,0.10466924,0.2217716,0.05500788,-0.028205764,0.12353041,0.109186836,0.01487024,-0.025505103,0.016811222,-0.010666362,0.13974196,-0.001716854,0.026778156,-0.08233714,0.023536604,0.079223156,0.11204027,-0.035797466,-0.10826159,-0.13862252,-0.01802653,0.19294116,-0.260471,-0.036953516,0.053375795,0.12499009,0.08210148,0.09621248,-0.0014960254,0.00012120418,0.08498866,-0.08862541,-0.031297587,-0.078214705,0.1328212,0.14797556,0.09717807,-0.31586316,-0.06262574,-0.102513246,-0.10723109,-0.02808008,-0.12264292,-0.11903967,0.0143190995,-0.08828854,-0.011040615,0.08101087,-0.12357135,0.05215494,0.081467725,-0.04077908,0.12973097,0.022506945,-0.0935773,0.11853653,-0.044790782,-0.033693064,0.0046813283,-0.19093093,-0.010914289,0.088220894,0.05903002,0.031394977,-0.037021767,-0.005074866,-0.06573042,0.09442421,-0.0075168223,0.12430681,-0.088756695,0.03322008,-0.022361632,0.072999746,-0.16751184,0.24839368,-0.083006874,0.19361916,-0.07395287,0.1550831,0.08540368,0.324385,-0.06389815,0.13530184,0.027291454,0.08133356,0.015669683,-0.0094745215,-0.18792151,-0.1242261,0.021633262,0.004548505,-0.06393679,-0.144713,-0.32593295,0.16926111,0.057100013
P22392|CHEMBL2160|Nucleoside,0.10988173,-0.038934723,0.11391718,0.030374601,-0.11430907,-0.024408452,0.033183865,-0.10157607,-0.09554963,0.036116246,0.13160104,0.15435795,0.1114698,0.040873535,0.15828761,-0.022683162,-0.0018073171,-0.08734829,0.057161927,-0.103282645,0.029829804,-0.12874743,0.052989524,0.15858014,-0.13930258,-0.10694519,-0.009243324,-0.030011173,-0.06677538,0.0037562177,0.030097988,0.06643678,0.107024394,0.12837633,0.055613182,0.052565,-0.03654856,0.0058953036,-0.21503972,0.058007743,0.07442357,-0.0013712673,0.27253118,-0.017571835,-0.038867984,-0.022659553,-0.016087541,0.09697095,-0.023369394,0.015100919,-0.15710416,0.056528777,-0.16016364,0.08783541,0.13880877,0.017215714,-0.075140655,-0.08543238,0.18421066,0.06715882,-0.028037522,0.003303999,-0.097576015,0.000515366,0.024407119,-0.04650511,-0.11005387,0.21840861,-0.020909542,0.06861381,-0.0333743,-0.17832093,-0.059289712,-0.24120578,-0.007636884,0.2159241,0.027197981,0.11707613,-0.03810742,-0.070203654,0.012901839,-0.024511341,0.07208284,-0.05244268,-0.04646499,0.029508118,-0.0040667243,0.022286855,0.06151404,-0.013673294,0.062179986,0.07215179,0.007533809,-0.008203013,0.032208882,0.002343079,0.0062187505,-0.13567604,0.033033002,-0.18398659,-0.11715181,-0.007940584,-0.08050796,-0.07324175,-0.113715634,0.07409977,-0.11458591,0.078809425,-0.026498772,-0.15912125,0.09390571,0.068215355,0.08099549,-0.01759684,0.0722105,0.19244905,-0.036656104,0.056485076,-0.00985283,0.04084037,-0.011307849,0.059378374,-0.0022437684,0.13469638,-0.016256789,-0.28582615,-0.04148965,0.08099603,0.1134738,-0.023086198,-0.05642336,0.06921311,0.15299365,-0.06230838,-0.036793657,0.13939947,0.0037805662,0.018602388,-0.038851347,0.010413006,0.059546005,0.018990923,0.027547818,-0.12934029,0.17591392,0.15919307,-0.010799911,-0.011767503,0.07982269,0.089436,0.09318005,-0.28173143,-0.22410634,0.054744527,-0.008764274,0.1141877,0.041892167,0.23745841,0.09349584,0.08677045,-0.093262754,-0.03767386,-0.078683935,-0.012523225,-0.19044545,0.07647613,0.012941418,0.02604613,0.053123876,-0.10756967,-0.08527417,-0.09935813,-0.019114137,-0.023738153,-0.19124244,0.04978343,-0.15141648,0.055625044,-0.11955478,-0.05840282,-0.089009054,0.053546615,0.1077697,0.030359013,-0.0019747454,-0.13704988,0.031210445,-0.019015305,0.011912427,0.22102104,-0.17482527,0.15446231,-0.058750987,0.050689414,0.14236021,0.09431162,-0.26610425,0.046217036,0.029568987,0.044110287,-0.11797309,0.13096438,-0.16533959,-0.12845507,0.031001579,-0.08172814,0.025207577,-0.09585234,-0.088630326,0.09942557,-0.04068018,-0.08795418,-0.09625787,0.14411294,-0.08117155,0.06506944,-0.028440863,-0.12811822,-0.047211308,-0.037319355,-0.16666321,0.15545489,0.10327787,-0.09835901,0.049297486,-0.0014712226,-0.009837614,-0.1261922,-0.13813098,0.060349733,0.13149297,0.31982437,-0.061950438,-0.051376425,-0.2988823,0.11117754,0.065715775,-0.15342733,0.18534958,0.023221446,-0.05789697,0.11818928,0.27118692,-0.11135577,0.008574985,-0.024286162,0.08016683,-0.0044625,0.08140522,0.23121247,0.0795698,-0.01804455,0.022442903,-0.03183017,-0.056340307,0.10057745,-0.09813715,-0.15568641,-0.09356212,-0.052848715,-0.25205356,0.03688604,-0.11478745,0.007995601,0.036302794,-0.09393233,0.09643266,-0.038926244,-0.06079191,0.033319727,-0.09279237,0.0041639414,-0.08776118,0.07744092,-0.0072072856,0.19256409,0.033160258,0.1889087,0.0054109013,0.0048397463,0.03942336,-0.047665216,0.021187354,-0.011325542,-0.0046140924,0.2095095,0.069101304,-0.06158904,0.04601756,0.01374072,-0.0025459328,0.029534386,-0.025792882,-0.0008243462,0.034039684,-0.063606955,-0.044147495,-0.004128622,-0.085592665,0.05004825,0.1444151,0.13845247,-0.054908678,0.03223648,-0.009243601,-0.032665394,0.2837527,-0.0682229,0.037941128,0.20658156,0.004731007,0.053496562,0.16210344,-0.09160051,0.09326163,-0.18823095,-0.11684054,-0.112972304,0.0077407435,0.13573124,-0.032760352,0.027029846,0.057650685,0.055317573,-0.058256023,0.031798653,-0.06844364,-0.19235976,0.002621077,0.09117852,-0.049252436,0.013162338,-0.08470753,-0.0034637116,-0.17644417,0.01859333,0.13632411,0.075182065,0.182357,-0.05983044,-0.06859824,-0.08749527,0.023522671,0.037210047,0.19343103,-0.14847627,-0.03379432,-0.005909327,-0.101362824,0.027675387,0.026086966,-0.023865081,0.05961167,-0.0049273367,0.13411966,0.044874072,-0.0017679837,-0.15718961,-0.08000606,0.009302881,-0.014247576,-0.11205397,-0.077687025,-0.11956302,-0.07555616,-0.031576686,-0.0385871,-0.16796997,0.13137338,0.013682695,-0.013412746,-0.23681986,-0.14138915,-0.03186299,0.22971858,0.23748189,0.033829108,0.013435139,0.16552205,0.032030843,0.10117936,0.15787588,0.115094714,-0.054290388,0.032369643,-0.22069353,-0.011243752,0.14700492,-0.029484356,0.030856814,-0.019005276,0.052994207,-0.08965557,-0.0673295,-0.12091071,0.055925168,0.012592193,0.1356715,-0.013446189,0.024585767,0.03534765,0.048714772,-0.100424394,0.34507337,0.03604181,-0.058931082,-0.03993438,0.01664612,-0.055094488,-0.026019584,-0.13265643,-0.018641956,0.1682237,-0.0757052,-0.15827112,0.0017509703,0.005085798,0.1074837,-0.010483123,0.07397819,0.05479244,0.20425713,0.061286345,0.20304433,-0.08525536,0.071061976,-0.070399255,0.011183038,-0.10013364,0.23930031,-0.08567033,-0.09361063,0.08917897,0.017691353,-0.17088078,0.13597248,0.1413306,-0.057984404,-0.030759435,-0.0006163188,-0.041800708,0.07726294,-0.068619154,-0.021366004,-0.043916896,0.0004009083,-0.039234396,0.11016793,0.08143479,-0.024621543,-0.023888534,0.17930469,0.04136674,0.023395434,0.019526698,0.09662327,0.052986152,0.071778476,0.014543801,0.09615301,0.082867555,0.07750726,-0.04806942,-0.1798806,0.08794149,0.06008505,-0.07521759,0.0122205615,-0.056849793,-0.013076648,0.10498171,0.16219553,0.06932617,0.084696576,0.11833333,0.09522862,-0.093823165,0.08594262,0.050761066,0.14252052,-0.052115005,0.07673582,0.087826125,-0.10773433,-0.032767754,-0.026991643,0.100693054,0.093927324,-0.06091217,-0.046239007,-0.010287018,0.19729014,-0.110865206,0.0073877247,-0.059302602,0.27420008,-0.0073625,-0.08697082,0.03548462,0.011967476,0.029212087,0.012413073,-0.06964176,-0.06598706,0.015826397,0.1300751,0.14238891,-0.10608529,0.04448874,0.031123215,-0.1455463,0.120268,-0.01999852,0.05860868,-0.08020097,-0.069660164,-0.111456454,0.0024340674,-0.050574195,0.16166532,-0.033897426,-0.006935239,0.08481376,-0.26059738,0.100886434,-0.15980047,-0.07951418,0.081312455,0.034109797,-0.029615521,0.100326955,0.091194324,-0.25050938,0.025829526,-0.0359412,0.04610746,0.004062726,0.083587654,0.043850332,0.0002512366,0.085590556,0.019145042,0.2494094,0.10915418,0.028431125,-0.29544792,0.14264244,0.07857041,-0.03878235,-0.07439815,0.027330345,-0.03991594,-0.023767136,-0.0495418,0.04432667,0.114684716,-0.26956648,-0.020017058,-0.18974435,0.074618295,0.11374955,-0.07218681,0.0033117845,-0.052862838,0.1763853,-0.06286682,0.034091644,0.04391198,0.08208507,-0.08107874,-0.08230407,0.07512321,-0.06503155,-0.030380163,0.071387365,0.0039028972,0.18934849,0.12570006,0.11231306,-0.08247068,0.14438084,-0.01753971,0.019379167,0.47193635,0.036339372,0.003614515,0.010175383,0.072276734,-0.19698544,0.07283898,-0.06620604,-0.047298428,0.073368184,0.037580542,0.09941675,-0.024041492,-0.082334876,0.0072764754,0.006605288,0.17922305,0.025786828,-0.06838148,-0.08437492,-0.023672566,0.06429856,0.00880307,-0.0037628505,0.2215301,-0.10888357,-0.035797182,-0.07541714,-0.09039956,0.05526056,0.02143519,0.053108595,0.07204225,0.059339836,-0.03739191,-0.027020188,-0.01972339,-0.04256299,0.06774882,0.052995645,0.065346316,0.038642332,0.05487407,0.22398987,-0.10587104,-0.08459711,0.019542255,0.015939312,0.12454949,-0.10893223,-0.006215031,-0.055553503,0.021388512,-0.07549978,0.043139927,-0.048274554,0.07798925,-0.0044786353,0.009126868,0.080177374,-0.12077565,-0.042695656,0.22718479,-0.23379958,0.26203418,0.10316665,0.012159785,-0.026532473,-0.00695201,-0.048707675,0.025233775,-0.0065458617,0.09701395,0.01108136,-0.07339719,-0.17044191,0.29370898,0.091537505,-0.08261599,0.09675568,-0.20856367,-0.11585364,-0.029603709,-0.13613968,0.31819722,0.09433346,0.026881147,-0.013940132,-0.04870733,0.063913934,-0.11279178,0.26476502,0.0024139062,0.1472202,0.21156311,-0.028630994,-0.005099914,0.055403583,0.116041005,0.02918591,-0.08265248,-0.11767322,0.038121384,0.14788097,0.05855481,-0.0045409533,-0.11600558,-0.21085449,0.15321627,0.21763965,-0.039763637,0.13053408,0.12909791,0.059795767,0.12458044,0.11210533,0.17443846,0.03772722,0.17950457,-0.0068669263,-0.06603045,0.030404082,-0.038013406,-0.045279913,-0.18051225,-0.021171033,0.014391145,0.0013275221,-0.02386744,-0.051717672,-0.040246658,0.01910785,-0.048217252,-0.0732667,0.09231503,-0.05742052,-0.12747465,-0.23653065,0.061450616,0.02647512,0.00509914,0.08984499,-0.020981442,0.2335479,-0.061656542,0.08175586,-0.0038520657,-0.023599379,-0.19023542,-0.022862151,0.05246363,-0.13438523,-0.14676178,-0.51929414,0.07962363,-0.07378893,-0.016757501,0.061640188,-0.024332874,0.17519817,-0.021880355,0.013022004,-0.21103376,0.07038882,0.13970512,0.06288594,-0.1505509,0.14624679,0.008704802,0.120363325,-0.07048808,0.11453401,-0.032719024,-0.084472895,-0.014436927,0.010117229,0.06357974,-0.22502144,-0.025710758,0.15411466,0.08338031,0.06027321,-0.014548369,0.01205932,-0.020017192,-0.024019528,0.083664626,0.06482841,0.025104927,-0.035468947,0.00078870915,-0.00408107,-0.08650364,-0.016885513,0.2132913,0.09194077,0.11030062,-0.026994497,0.036705878,0.119751595,-0.10010205,-0.18650168,0.013091709,-0.08012277,-0.024122536,0.00053057075,-0.15616295,-0.18005504,0.0194305,-0.00054863095,0.04371591,-0.0030168174,-0.23803218,-0.074037895,-0.0010071741,-0.04445312,-0.1605889,0.17341858,0.063482985,-0.08888403,0.28511566,0.07101544,-0.022113536,-0.065791905,-0.0063764183,-0.15254971,0.021445658,-0.010214476,0.0743908,0.053612642,0.09533504,0.08996286,-0.116400056,0.039180093,-0.100151286,0.26735616,0.017504316,-0.11869759,-0.034195878,-0.08109673,0.13352925,-0.12054201,-0.005060537,0.07694489,-0.13209121,-0.030931141,0.092350535,-0.056512184,0.010338634,-0.09958341,0.0003239147,0.013764003,0.040277682,0.5448942,0.12468029,0.052660547,0.012753126,-0.03036397,-0.066929325,-0.045211248,0.0709071,-0.14087552,0.037705224,0.030697413,-0.16762003,0.004630237,0.017270725,-0.022380674,-0.01552665,-0.01804075,-0.029987257,0.12240678,0.059345,-0.08984809,0.07801146,-0.10438644,-0.045717195,-0.011664144,-0.038369954,-0.09805706,-0.03236156,-0.019775243,-0.09714784,-0.07129739,0.0991057,0.03288024,0.05726372,-0.027506704,0.050548486,0.03412863,0.118117355,-0.027029604,0.16751745,0.17645155,0.1798047,-0.050590537,0.19606417,-0.10405889,0.0038134623,-0.10561082,-0.07423444,0.016580358,0.07171694,0.11156421,-0.052173443,-0.021488916,-0.085320786,-0.004666865,-0.0498949,0.09343149,-0.041051384,-0.044476084,0.045177676,-0.043787654,0.107801765,-0.04475804,0.10987892,0.0007588221,0.109674186,0.13747686,-0.17473267,0.004954746,0.17151678,-0.111011446,0.036581222,0.1941445,0.25570798,0.023722965,-0.015582565,-0.06319924,-0.12585014,-0.06935099,-0.06390962,0.055629775,-0.12927061,0.043227714,-0.01025163,0.07286582,-0.00013944879,-0.2097625,-0.016675988,0.10229324,-0.030178316,0.10874418,-0.15392101,-0.07615163,-0.027691737,0.004665505,-0.057829726,-0.20820868,-0.17259187,-0.061607666,-0.10381179,-0.21992321,-0.032679,0.011807235,0.04068235,-0.038169377,-0.024416007,0.18240988,0.055377215,0.15516117,0.17455122,-0.14847036,-0.20276718,-0.0073336735,-0.10916783,-0.025828578,-0.13390331,0.08239107,0.03438908,0.16682829,-0.18401332,-0.10484685,-0.0087682735,0.059796892,0.2073264,0.102304325,-0.095364735,-0.024557443,-0.004382966,0.01983324,0.035439633,-0.05066439,0.0578203,-0.09337457,-0.055193685,-0.07041892,0.021652283,0.007447415,0.26771224,0.017292142,0.17616288,0.1528665,-0.02859319,-0.022700395,0.058599696,-0.1879686,0.07207623,-0.11224601,-0.24725954,-0.115549766,-0.05224552,-0.12021252,0.0572837,-0.02667781,0.024592772,0.009099036,-0.011592644,0.10765187,0.047719672,-0.0429239,0.117986254,0.11192466,-0.021275328,0.045811936,-0.027097404,0.006579656,0.03187109,-0.0795881,-0.016714629,0.08415264,0.07194735,0.09224208,0.13379261,-0.09797386,0.20785266,0.15052721,-0.09891107,0.06990518,-0.14578564,0.14473133,-0.21148363,0.024216846,-0.08851226,0.13267538,0.07289989,-0.17887318,-0.050907683,-0.06632056,-0.16037774,-0.009267113,0.034592666,0.088768296,-0.11273958,-0.043637767,-0.027039787,-0.047150385,-0.13030241,0.15281972,-0.22810902,0.17177609,-0.044957876,-0.09589668,0.10486069,-0.10302819,0.14553723,0.14085476,-0.1438794,0.06140741,-0.12905812,-0.04794931,0.017400552,0.036136374,-0.05294799,-0.10739153,-0.028922338,-0.015472885,0.051084798,0.06243441,0.018868074,0.13625386,-0.23558241,0.01263649,0.0183878,-0.057597198,0.067677334,0.05892548,0.1330755,-0.2868802,-0.13882479,0.017947529,-0.3303168,0.007014677,-0.016072018,0.029077657,-0.09002924,0.027487725,0.15908922,0.14247674,-0.15153769,-0.108909875,0.03871536,0.06335825,0.07626278,0.0004979698,0.022009924,0.059102636,0.016823111,0.09781095,0.097805314,-0.034074813,-0.106236756,-0.0049307607,-0.14209393,-0.17721283,-0.08663929,0.006452471,0.15436164,-0.14097397,-0.11301738,-0.10902188,0.20696642,0.08775841,-0.01092115,-0.06098923,-0.20751098,-0.093806036,0.060079426,0.16546933,-0.077197015,-0.08258944,-0.10907619,0.010530209,0.13199094,-0.021867309,-0.090493895,-0.0034539849,-0.019481309,-0.10667331,-0.045025043,0.15937349,0.01871658,0.1427868,-0.10510079,-0.10157131,-0.19439577,0.047982395,-0.049488384,-0.0005676374,0.047746964,-0.047475938,0.14730816,-0.07704497,-0.07532108,0.14372215,0.10992888,-0.019906703,0.21595351,-0.07359348,0.08595997,-0.046334807,-0.13461044,-0.105910435,0.14316604,-0.045509398,0.021200001,-0.03927706,-0.34502542,0.12500685,0.033149943,-0.0039825533,-0.037267096,0.15579486,-0.08379463,0.107522,0.06888537,-0.029635936,0.13183367,-0.055284023,0.016630687,-0.21707135,0.025368135,0.17793229,0.074593015,0.023412574,-0.024328498,-9.328294,-0.038046516,-0.033995323,0.049039394,0.19130145,0.23474298,-0.011769421,-0.1009699,0.1088126,0.05985994,0.060467705,-0.020667024,0.013995807,-0.049496125,0.059111733,0.029353043,0.080870554,-0.07563397,0.03518159,0.35137975,0.050928023,0.076981455,-0.077388436,0.101871915,0.14415924,0.13106112,-0.015010148,0.15224265,0.039244875,-0.028312614,0.06280641,0.009275125,0.023802951,0.094998285,-0.046538718,0.0021288022,-0.061586697,0.060797337,0.12652004,0.10738891,0.0068174712,-0.0577781,-0.044286065,0.032586716,0.18096335,-0.16905484,-0.013110647,0.11175174,0.15955661,0.08647858,0.13655779,0.0069519775,-0.018498596,0.03400086,-0.06681484,-0.041275285,-0.05121039,0.22906457,0.108510785,0.10017398,-0.21845628,-0.04763707,-0.06055263,-0.020645844,-0.034520805,-0.11028886,-0.09497499,0.06530724,-0.12852833,0.01464889,0.107362196,-0.06391179,0.10455893,0.1204915,0.0075314604,0.09089798,-0.073656276,-0.12351525,0.08178903,-0.04037057,-0.08566629,0.021515083,-0.16726239,-0.040759083,0.10320902,0.004805114,0.007203077,-0.022663403,0.004722938,0.071825,0.08200227,-0.07819151,0.07859342,-0.039389446,0.037914574,0.057638362,0.10116098,-0.042610608,0.20666529,-0.015160562,0.18455821,-0.07169621,0.098733366,0.034784365,0.30600715,-0.00042970653,0.112916075,0.032317422,0.15001413,0.04892426,0.03293564,-0.1308989,-0.11600628,-0.0262766,-0.0069057588,-0.053311475,0.030290559,-0.2504425,0.16976614,0.02549484
